wordpair,1,2,3,4,5,6,7,8,9,10,11,12,13,14,15,16,17,18,19,20,21,22,23,24,25,26,27,28,29,30,31,32,33,34,35,36,37,38,39,40,41,42,43,44,45,46,47,48,49,50,51,52,53,54,55,56,57,58,59,60,61,62,63,64,65,66,67,68,69,70,71,72,73,74,75,76,77,78,79,80,81,82,83,84,85,86,87,88,89,90,91,92,93,94,95,96,97,98,99,100,101,102,103,104,105,106,107,108,109,110,111,112,113,114,115,116,117,118,119,120,121,122,123,124,125,126,127,128,129,130,131,132,133,134,135,136,137,138,139,140,141,142,143,144,145,146,147,148,149,150,151,152,153,154,155,156,157,158,159,160,161,162,163,164,165,166,167,168,169,170,171,172,173,174,175,176,177,178,179,180,181,182,183,184,185,186,187,188,189,190,191,192,193,194,195,196,197,198,199,200,201,202,203,204,205,206,207,208,209,210,211,212,213,214,215,216,217,218,219,220,221,222,223,224,225,226,227,228,229,230,231,232,233,234,235,236,237,238,239,240,241,242,243,244,245,246,247,248,249,250,251,252,253,254,255,256,257,258,259,260,261,262,263,264,265,266,267,268,269,270,271,272,273,274,275,276,277,278,279,280,281,282,283,284,285,286,287,288,289,290,291,292,293,294,295,296,297,298,299,300
acceleration:speed,0.0693359,-0.136719,-0.237061,0.174805,-0.237915,-0.0413208,-0.105591,-0.33667,0.0361328,0.166016,-0.334961,0.0712891,-0.0888672,0.211426,-0.0302734,0.074707,0.0107422,-0.0986328,-0.0473633,0.331604,-0.0944824,0.199219,-0.0478516,-0.189453,0.0551758,0.125977,0.237305,-0.276611,0.00683594,-0.0943604,-0.325439,-0.297119,0.0639648,0.0844727,-0.0849609,0.0664062,0.00170898,-0.0361328,-0.0831451,-0.205566,-0.163574,-0.0546875,0.169922,0.460358,0.0795898,0.135376,-0.0551758,-0.132324,0.0878906,-0.239319,0.295654,-0.169922,-0.121826,0.208252,0.197021,0.107422,0.00341797,-0.034668,0.188232,-0.14859,-0.5,0.211914,-0.164062,-0.342041,-0.360901,0.0337677,0.0292969,-0.0566406,-0.152832,-0.348633,0.21582,-0.102539,-0.193604,0.0522461,0.0620117,-0.142578,0.03125,-0.0732422,-0.103027,0.0283203,0.125,-0.0778809,0.038208,0.183228,0.00976562,-0.098877,0.283203,0.116211,-0.179688,-0.117432,0.0385742,-0.342773,-0.228027,0.171875,0.274902,-0.0703125,0.0993652,0.329102,0.133789,-0.0653687,-0.216797,-0.249146,-0.283447,-0.0195312,0.0283203,-0.352539,0.0732422,-0.0240631,-0.178711,-0.00390625,-0.138916,-0.223145,0.0734863,0.306396,0.0688477,-0.0112305,-0.19751,0.00683594,0.112305,0.180176,0.150757,-0.0788574,0.0124512,-0.278809,0.0952759,-0.0410156,-0.0900879,0.197754,-0.0131836,-0.121826,-0.120483,0.106445,-0.0336914,0.219238,0.166016,0.0622559,0.13916,-0.186768,-0.0444336,0.416748,0.206177,-0.202148,-0.166229,0,0.0276489,-0.301758,0.0146484,-0.0412598,-0.170776,0.0869141,0.164062,-0.291992,0.00756836,0.074707,0.0351562,-0.140625,-0.204102,0.132568,0.26799,0.203369,0.122559,0.0192871,-0.0432205,-0.152466,0.0379639,0.207764,0.0688477,0.300293,0.0567627,0.290039,-0.112793,-0.01964,-0.129883,-0.0100098,0.14978,0.124512,0.166992,-0.0263672,0.247437,-0.00341797,-0.293457,0.0883789,0.154297,-0.130859,0.273743,0.180786,-0.227539,0.350098,0.0107422,0.0785522,-0.158203,-0.117065,0.00976562,-0.15332,-0.0415039,-0.0556641,-0.00244141,0.0825195,0.0471191,-0.161133,0.0493164,0.083252,-0.0932617,-0.162354,0.0107422,-0.144867,-0.149414,0.0292969,-0.0224609,0.133789,0.098999,-0.098999,0.043457,0.223145,-0.0595703,0.0205078,0.0227051,0.143066,0.353882,-0.141724,-0.19043,0.149902,0.168457,0.0274048,0.0322266,0.317383,0.111816,-0.338745,0.166016,0.0239258,0.0583496,0.219727,0.00390625,-0.13623,-0.0253906,0.251709,-0.0117188,0.00976562,0.0390625,-0.349609,0.0556641,0.121201,-0.263672,0.203857,-0.221924,-0.212891,-0.0976562,-0.0771484,-0.0371094,0.15918,0.192871,-0.112061,-0.356445,-0.297119,-0.186035,0.110352,-0.131898,-0.218658,0.0778809,0.0675049,0.0234375,-0.0571289,0.0942383,0.150635,-0.119873,-0.17041,0.125458,0.230469,-0.0878906,-0.0891724,0.217285,-0.132812,-0.0527344,-0.119141,0.109558,0.015625,-0.323242,0.0771484,0.0800781,-0.00341797,-0.0939941,-0.21875,-0.0517578,-0.0477295,0.0371094,-0.0683594,0.285461,-0.182129,0.0078125,-0.028244,-0.101746,0.126343,0.154785,0.0510254,0.23291,0.145752,-0.128036,0.150742,-0.209961,0.238068
big:large,0.0664062,-0.0424805,0.0532227,0.0185547,0.189453,-0.00976562,-0.0518799,0.0161133,0.0117188,0.16748,0.178955,-0.0561523,0.0712891,0.0310059,-0.00878906,0.216064,0.217773,-0.0395508,0.192383,-0.0183105,-0.0395508,0.191895,0.149902,0.124023,0.157227,0.265381,0.107422,-0.106689,0.111938,0.195862,-0.160645,0.0,0.228516,-0.00830078,-0.108154,-0.059082,-0.0541992,0.17041,0.164062,0.0625,0.0576172,-0.328125,0.0766602,-0.0733528,0.162598,0.0852051,0.153076,0.0203857,0.108856,0.153809,-0.117432,0.297363,-0.0595703,0.046875,0.0146484,-0.0522461,0.0239258,-0.0681305,0.134766,-0.0576172,0.0537109,0.0869141,0.0693359,0.0986328,-0.0822144,-0.0206299,0.0440674,-0.0449219,0.0410156,0.0708008,-0.0615234,0.0976562,-0.121094,-0.0126953,-0.0371094,0.0334473,-0.00488281,0.355499,-0.102661,0.0170898,0.0110168,0.0151367,-0.0872803,-0.0541992,0.0908203,0.0605469,0.212158,-0.125488,0.0107422,-0.0439453,0.195312,0.172852,-0.154297,-0.0943604,-0.191895,-0.202148,0.0949707,0.13623,-0.121582,-0.0535278,-0.00500488,0.204102,0.177368,-0.0791016,0.0324707,-0.090332,-0.0371094,-0.072998,0.0117188,0.133789,-0.0651855,0.236816,-0.0264893,0.0988159,0.0615234,0.0307007,-0.0777283,0.160889,-0.183563,-0.174744,-0.0526123,0.185059,-0.20752,0.13269,0.055542,-0.259949,0.0527344,0.154297,-0.101318,-0.0656128,-0.180176,-0.227539,-0.0675964,0.00488281,-0.074707,-0.083374,0.083252,0.128418,0.0333862,0.0570068,0.116211,-0.0604248,0.0810547,-0.119385,-0.0247803,-0.0387573,0.189941,-0.0366821,0.128418,-0.163574,-0.178711,0.109711,-0.088623,-0.00439453,-0.0473633,0.153687,0.012085,-0.249512,0.0366211,-0.109497,0.0986328,0.00854492,0.0655518,0.125488,0.0136719,-0.230469,0.00244141,-0.13623,0.0703125,0.0852051,-0.03125,0.0581055,0.310059,-0.0703125,-0.229004,0.108643,0.0429688,0.0570068,-0.0186768,0.236328,0.0471191,-0.181885,0.296387,0.0697021,-0.108398,0.0168457,-0.0959473,0.0516357,0.0194702,-0.146484,0.188721,0.182251,0.0750732,0.267639,0.198242,-0.0767822,-0.0767822,0.0791016,-0.228027,-0.0700989,0.00585938,-0.144043,0.0466309,0.0537109,0.0454102,-0.012207,-0.00195312,-0.104614,0.185059,0.131302,0.0117188,0.286621,0.0418701,0.114258,0.0366211,-0.164459,0.0908203,0.00976562,0.0524902,-0.0466309,-0.149902,0.124268,0.205078,0.123047,0.00927734,0.00756836,-0.0720062,0.036377,-0.128235,0.0473633,-0.105957,0.162842,-0.00927734,0.0546875,0.131104,0.235107,-0.0980225,-0.243164,-0.0776978,-0.0473633,0.188965,0.0311279,-0.106445,-0.0195312,-0.0298767,0.0507812,-0.0859375,-0.0107422,0.0484619,-0.159546,-0.0305786,0.0922852,0.0498047,0.093277,0.164917,0.00470734,0.0421753,0.178955,-0.182617,-0.184448,-0.195801,0.157227,0.0185547,-0.153503,0.0219727,-0.0499268,-0.00292969,-0.0964355,0.0363503,0.0935059,0.0395508,-0.000976562,0.0698242,-0.081543,0.00891113,0.0767212,-0.0341949,-0.0983887,-0.0789795,0.0334473,0.00585938,-0.0273438,-0.0952148,0.128662,0.0533447,0.0622559,0.0946808,-0.0582275,-0.0512695,-0.0371094,-0.0849609,-0.0900507,-0.126953,-0.0666504,-0.0872803,-0.149902,0.0329895,-0.188965,-0.0144043,-0.0244141
boat:ship,-0.0351562,-0.175293,0.0371094,-0.132812,-0.273438,-0.0783691,0.0620117,-0.119141,-0.119141,-0.0268555,0.271729,-0.00195312,-0.117188,-0.0595703,0.23291,-0.166016,0.050415,0.0444336,0.241699,0.100098,0.0849609,0.0297852,-0.107178,0.125336,-0.03125,-0.137451,-0.125244,0.193359,0.210938,0.16748,-0.271484,0.227051,0.144043,0.205078,0.155518,-0.154785,0.0898438,0.0791016,0.0483398,0.0302734,-0.212646,0.097168,0.135742,0.197266,-0.132568,-0.0361328,-0.097168,-0.0859375,0.247559,-0.0334473,-0.125977,0.0205078,0.0507812,-0.0439453,-0.0171509,-0.0136719,0.0874023,0.182617,0.00927734,0.0471191,-0.0751953,-0.0363159,0.00390625,-0.179932,0.0716553,-0.0106201,-0.0844727,0.0671387,0.0996094,-0.123047,0.0887451,-0.237793,0.0516357,0.300293,0.134766,0.0635986,-0.0302963,-0.115234,0.078186,-0.0136719,0.169922,-0.0888062,0.0366211,-0.0664062,-0.142906,0.0302734,-0.116943,-0.0830078,-0.197266,-0.0744629,0.0253906,0.0722656,0.0258789,0.0878906,-0.15332,-0.0458984,0.0938721,-0.460938,0.0263672,-0.187256,-0.109863,0.119141,0.209106,0.161804,-0.00390625,0.194092,0.30957,-0.0800781,0.268555,-0.0693359,-0.0273438,-0.103516,-0.0401611,0.0766602,0.00488281,-0.266602,0.105347,0.119629,-0.463867,-0.00317383,0.169922,0.279297,0.0703125,-0.050293,0.118896,0.0544434,0.115723,0.106201,-0.0410156,0.276611,-0.1604,-0.34082,0.0292969,0.0844727,-0.175537,-0.116699,0.175781,0,0.259857,0.112305,-0.186523,0.00805664,-0.0771484,-0.0499268,-0.0219727,-0.00976562,-0.247437,-0.053772,0.0625,-0.17041,-0.03125,-0.0129395,-0.0742188,0.0546875,0.257812,-0.0897522,0.163818,0.194336,-0.237305,0.111176,-0.106445,-0.0403442,0.188354,0.0625,-0.015625,0.126953,0.0527344,-0.126953,-0.0429688,-0.0742188,0.0322266,-0.0335693,-0.000610352,0.097168,-0.0297852,0.0576172,0.26416,0.117798,-0.15332,0.141602,0.2229,-0.0859375,0.19519,-0.0532227,-0.078125,-0.362793,0.111328,0.17334,0.189941,-0.0341797,-0.0249023,-0.1521,-0.255859,0.286865,0.129883,-0.177979,-0.211426,0.0605469,-0.036438,0.0605469,-0.259766,-0.0900879,-0.166992,-0.0761719,-0.0126953,-0.383789,-0.111084,0.221924,-0.0129395,0.404297,0.0952759,-0.0302734,0.0065918,-0.179688,0.0634766,-0.132812,-0.402344,0.206299,-0.00341797,-0.0821533,0.00732422,-0.0146484,0.0351562,-0.156006,0.161713,-0.0180664,0.487305,0.298828,-0.422852,0.10498,-0.0532227,0.101421,0.285156,-0.228027,-0.202576,-0.199219,0.134766,0.0504074,0.0309448,-0.00921631,0.226562,-0.145447,-0.0686035,-0.00683594,0.0670166,-0.0371094,-0.0482178,0.0341797,-0.0134888,-0.046875,0.024292,-0.00146484,0.0336914,0.200439,0.107422,0.106934,0.293945,0.134277,0.0738525,0.0410156,-0.0273438,0.141876,0.277832,0.0875244,0.0275879,0.400391,-0.148438,0.145508,0.0883789,-0.0455322,-0.0576172,0.162109,-0.160645,0.1875,-0.15516,0.198975,-0.121582,0.116699,-0.0322266,-0.046875,-0.0859375,-0.138672,0.101562,-0.0211792,-0.101562,0.0616455,0.155273,0.344727,-0.301758,0.0830078,-0.148193,0.0209961,-0.295898,-0.151398,-0.327637,-0.0844727,-0.119629,-0.262386,-0.199097,-0.134888
book:magazine,-0.0727539,-0.109619,0.0800781,0.0891113,-0.0654297,0.113403,0.0422363,0.46582,-0.00195312,-0.0689697,0.193115,-0.0124512,-0.0117188,-0.124512,-0.0810547,-0.0629883,0.0311279,0.102356,0.209473,-0.0351562,-0.196289,-0.0512695,0.150879,-0.296875,-0.258179,-0.0219727,-0.0200195,-0.339844,-0.03125,0.241699,-0.422852,-0.0527344,-0.161621,-0.262329,-0.373047,0.394531,-0.11377,-0.209961,0.120117,-0.276123,0.083252,0.143471,0.0847168,0.149414,-0.102295,-0.102539,-0.131348,0.00292969,-0.285645,-0.237305,-0.0976562,0.229248,-0.0933838,-0.359375,-0.0810547,0.146606,-0.272339,0.251953,0.0166016,-0.193726,-0.09375,-0.0859375,0.129272,0.244141,0.0326538,-0.178223,-0.0634766,-0.0525513,-0.14917,-0.389496,0.612793,-0.211548,0.12793,-0.0552979,0.144531,-0.16333,0.078125,0.116211,0.382812,-0.225098,0.342041,0.223877,-0.0690918,0.0317383,0.212891,-0.0615234,-0.0375977,-0.166016,-0.12146,0.0397949,-0.0126953,-0.0253906,-0.0847168,0.34668,0.0976562,-0.49707,-0.0234375,-0.0405273,-0.0610352,-0.214111,-0.12439,-0.0923538,0.213257,0.151855,-0.12793,-0.0810547,0.179688,-0.0449219,-0.140625,-0.117432,0.0387573,-0.0380859,-0.0859375,-0.167969,0.0556641,0.0881348,-0.293457,-0.207764,0.0400391,0.0797119,0.17041,0.31604,0.508789,-0.107178,-0.118408,-0.0692139,-0.144775,-0.0496521,-0.418945,0.34668,-0.115601,-0.145996,0.219727,-0.274414,-0.0400391,-0.0429688,0.00854492,-0.273941,-0.278809,-0.0909424,0.126465,-0.00376892,0.107544,-0.0891113,-0.090332,-0.012207,-0.247131,0.015625,0.0971069,-0.14209,0.185547,-0.079834,-0.104614,0.304688,-0.0859375,-0.0712891,0.362305,-0.0917969,-0.0549316,-0.0979004,0.09375,-0.170654,0.15918,0.0646973,0.0528564,0.328613,0.29187,-0.119751,-0.311035,-0.141357,-0.165527,0.124023,0.174072,0.0292969,0.120605,-0.28363,-0.046875,0.104004,0.273682,0.0974121,-0.101501,0.280273,-0.228027,-0.191406,-0.00439453,-0.155762,0.200684,-0.0361328,-0.116699,0.106934,-0.316406,0.00683594,-0.0449219,0.0338135,-0.263672,0.0629883,-0.131592,-0.0581055,-0.426758,0.277344,0.26001,-0.240356,0.107578,-0.0131836,0.0883789,-0.0493164,-0.143555,-0.110352,-0.250366,0.0991211,0.0400391,0.0234375,-0.112793,-0.135803,-0.188965,0.170898,-0.015625,-0.128418,0.0803223,-0.236847,0.0595703,-0.0561523,0.359863,-0.057373,0.180267,-0.189453,-0.103516,-0.088623,0.137939,-0.0523682,0.284668,-0.000976562,0.078125,-0.0234375,-0.236084,-0.172363,0.109619,0.0214844,-0.145508,-0.146484,0.0180664,-0.252441,0.299805,-0.231445,0.119171,0.17688,0.18457,0.246094,-0.0535278,0.0791016,-0.20459,0.0249023,0.272949,0.282715,-0.116699,-0.24646,0.00927734,0.134888,0.105591,-0.0454102,-0.147461,0.166504,-0.129639,-0.282959,-0.327148,-0.189453,0.413574,-0.153076,-0.114502,-0.350586,0.226852,0.206055,0.0571289,0.0898438,0.0512695,0.141113,0.0449219,-0.0880127,0.0944824,-0.0283203,0.274292,-0.179199,-0.139404,-0.0651855,0.310547,0.318359,-0.0341797,0.275391,-0.12561,-0.391602,-0.171875,0.114105,0.0546875,-0.515625,-0.0598145,-0.0839844,0.012146,-0.146484,-0.124512,-0.259064
car:auto,-0.0361328,-0.192749,-0.0534668,-0.248291,0.177734,-0.348633,0.00708008,-0.250488,0.0820312,0.157227,0.197266,-0.460938,0.101074,0.162109,0.0974121,0.0733643,-0.287323,0.0244141,0.097168,-0.0598755,0.0175781,-0.211426,0.188843,0.231934,0.00195312,-0.271729,-0.107178,0.0185547,-0.0585938,-0.131104,0.162109,0.0324707,0.032959,0.0078125,-0.175537,-0.0446777,-0.110352,-0.115723,-0.270996,-0.0986328,-0.13501,0.115845,0.0799561,-0.0927734,0.150391,0.0871582,-0.0503082,-0.0947266,0.118164,-0.00585938,-0.078125,0.196289,0.272949,-0.208008,-0.0947266,-0.050293,0.0616302,0.0703125,-0.0996094,0.0283203,0.183594,-0.0673828,0.335938,0.111816,0.102051,0.240723,0.16748,0.150269,-0.00488281,-0.0175171,0.105225,-0.116699,-0.117432,0.239258,0.140625,0.167389,-0.072998,-0.0670776,0.130127,0.157227,0.166016,0.224609,-0.117966,0.15918,0.00341797,-0.112549,0.00976562,-0.129883,0.0673828,0.301392,0.0205078,-0.00183105,-0.183105,-0.137695,0.140625,0.00439453,-0.272095,-0.0341797,0.115723,0.0734863,-0.186279,-0.0703125,0.436523,0.382324,0.126953,-0.183594,0.22229,-0.179321,-0.310059,0.0045166,-0.0771484,0.0224609,-0.00390625,-0.108887,-0.0390625,-0.414062,-0.0957031,-0.146484,-0.331055,-0.0917969,0.0931396,-0.121094,0.0246582,0.118164,-0.419678,0.28418,-0.0922852,-0.00976562,-0.106567,-0.0595703,0.100586,-0.097168,-0.0704346,-0.154724,0.0919189,-0.0700684,0.181885,-0.0078125,0.125,0.342773,-0.171387,0.253418,0.130371,-0.212891,-0.0957031,0.195801,-0.145508,-0.195557,-0.0717773,-0.257324,0.0566406,0.208496,0.0592041,0.0932617,0.226074,0.101685,-0.257324,-0.0239258,-0.230713,0.209473,-0.206299,0.294434,0.198242,0.0283203,0.0722656,-0.138489,0.354248,-0.0175781,0.0761719,-0.278809,-0.145752,0.0356445,-0.114746,0.015625,-0.220978,0.22168,0.0610352,0.00292969,-0.255371,0.40332,0.372559,-0.00439453,-0.0810547,-0.123535,-0.0966797,-0.23877,0.143677,0.131836,-0.268555,0.0180664,-0.124023,-0.0472412,-0.0771484,0.0244141,0.233261,0.0183105,-0.230377,0.128906,-0.01297,0.116211,0.308594,0.0810547,-0.321533,0.185547,0.102173,-0.105469,-0.0917969,0.266113,0.0410156,0.179932,0.119385,-0.17627,-0.0720825,-0.00836182,-0.178223,0.238281,-0.177979,-0.0673828,0.0623779,0.0974121,-0.03125,0.0585938,0.605469,0.117188,-0.0720215,-0.106689,0.125854,0.0717773,-0.199951,-0.115479,0.164795,0.202881,-0.0665283,-0.189575,-0.163086,0.124023,-0.00390625,0.147339,-0.0239258,-0.0803223,0.0849609,0.00537109,0.0078125,-0.249146,0.208984,-0.0565186,0.050293,-0.217773,0.124023,0.0546875,0.0390625,0.258789,0.0146484,0.197876,-0.0743408,-0.0541992,-0.183838,-0.0202637,0.189697,-0.243652,0.145508,0.128906,-0.239624,0.269531,-0.116211,-0.0957031,-0.194336,0.110352,-0.236328,0.155273,-0.0078125,-0.115723,0.291992,0.203735,0.111206,0.0771484,-0.092041,-0.127075,-0.18103,-0.0887756,0.168945,0.149048,-0.129456,0.0908203,0.171387,0.118164,0.103394,0.0285645,-0.00952148,0.0200195,0.0351562,0.323242,-0.23584,0.165527,-0.0739746,-0.175171,0.135498,-0.125,-0.148567,0.207031
careful:cautious,0.117188,-0.03125,-0.15271,0.0253906,0.107422,0.0516357,0.15625,0.027832,-0.107422,-0.296143,-0.0806274,-0.0820312,-0.181152,-0.0708618,0.198242,0.00549316,-0.0126953,-0.0925293,-0.078125,-0.132538,-0.0649414,-0.242188,0.027832,0.0253906,-0.0175781,-0.186035,-0.00390625,-0.117188,-0.273438,-0.237274,-0.0633545,0.0893555,0.127197,0.121094,-0.00341797,0.0712891,0.161499,0.0147462,0.0820312,-0.0146484,0.0078125,0.0722656,0.264648,-0.202086,-0.00683594,-0.00592041,0.09375,-0.0126953,-0.0651855,-0.208984,-0.307312,0.0859375,0.10791,-0.299805,0.194824,0.100586,-0.164551,-0.0273438,0.130859,0.0625,0.0566406,0.0322266,0.19043,-0.109253,0.114502,-0.101562,-0.16626,-0.0881958,-0.0253906,-0.154785,0.145508,0.0908203,0.0527344,-0.268311,-0.125,0.0078125,-0.288086,-0.0761719,-0.152344,-0.0644531,-0.0175781,-0.168945,0.198242,-0.0793457,-0.145508,-0.125,0.152344,0.228516,0.152344,0.25,0.0629883,0.088623,-0.0130615,0.019043,0.088623,-0.186035,-0.0126953,-0.119141,0.0136719,0.100708,-0.375977,0.0527344,-0.151917,0.0297852,-0.180664,0.114258,-0.126404,0.136047,-0.149902,0.0371094,-0.387695,-0.0703125,-0.127319,0.0119324,0.32959,0.169434,-0.256836,0.0673828,-0.245483,-0.0615234,-0.140625,0.0527344,0.161133,-0.0996094,-0.0126953,0.423706,-0.121338,0.00500488,0.242401,-0.043396,-0.124268,-0.164307,-0.223145,-0.0449219,0.043457,0.0595703,0.103027,-0.109375,0.231781,-0.0878906,-0.0693359,-0.0740356,-0.155273,0.00341797,0.0812988,0.0800781,0.130322,0.178223,0.103516,0.0996094,0.0830078,0.156494,0.0654297,-0.28418,0.160156,-0.146973,0.0642395,-0.0750732,-0.105225,0.0214844,-0.0849609,0.123047,-0.209961,0.268555,-0.126953,-0.169678,0.0783691,-0.197754,-0.000488281,-0.140381,0.0839844,-0.101746,-0.19043,-0.0864258,0.182129,-0.00830078,-0.0166016,0.159668,-0.0722656,-0.010498,0.0493164,0.0946655,-0.0905762,0.110779,0.0576172,0.317383,-0.0276489,-0.289062,0.0595703,0.0136719,0.0708008,-0.00439453,0.341553,-0.0244141,-0.0456543,0.159668,-0.00683594,-0.193298,-0.0615234,-0.164185,0.213135,0.172363,0.117188,0.141113,-0.0820312,0.155273,0.0719604,0.161133,0.157959,0.105469,0.0646973,0.220215,-0.123535,-0.164551,0.090332,-0.234375,-0.0454102,0.210327,0.219482,0.0869141,-0.147705,-0.15332,-0.0703125,-0.0214844,-0.0599556,0.0078125,0.0791016,0.387451,-0.0585938,-0.097168,0.199463,-0.234863,-0.12085,0.0244141,-0.0469513,-0.0869141,-0.123535,0.17334,0.187988,-0.0566406,-0.081543,-0.0611572,0.00927734,-0.149902,0.0109863,-0.0361328,-0.121338,-0.041748,-0.136963,0.173279,-0.00244141,-0.128448,0.109863,0.101318,0.325195,0.124512,-0.0248413,-0.163208,-0.104736,-0.102539,0.0765381,-0.0452576,-0.0395508,-0.148926,0.0244141,-0.0791016,-0.0566406,0.203125,0.00585938,-0.0609131,0.00537109,0.117676,-0.0927734,0.504883,0.00720215,-0.0444336,0.197266,-0.0786133,-0.0888672,-0.0371094,-0.0859375,-0.090332,0.20752,0.284607,-0.353516,0.0166016,-0.0447998,-0.03125,0.0454102,-0.0654297,0.095459,0.0578613,-0.168579,0.166748,-0.0874023,0.0585938,0.128662,-0.146973,-0.266602,0.0224609
chair:sofa,-0.112793,-0.212891,0.0332031,-0.296677,-0.404221,-0.219482,0.0825195,-0.0224609,-0.126953,-0.268066,0.123779,0.272949,-0.115479,-0.192627,0.328003,0.200195,0.308105,-0.0430908,-0.065918,-0.0168457,-0.0737305,0.215698,-0.2146,0.00927734,-0.00634766,-0.285522,-0.155029,-0.0595703,-0.177734,0.0830078,-0.151367,-0.105469,0.0498047,0.0239258,0.357574,0.30249,-0.287598,0.216309,0.114746,-0.0983887,0.125,0.249023,-0.148193,-0.102417,-0.386719,-0.191406,-0.103516,0.119751,0.0429688,0.402344,-0.327881,-0.129974,-0.000976562,0.106445,-0.0513916,0.127686,-0.0151367,-0.154053,0.249023,-0.297852,-0.183105,-0.146118,0.305664,-0.0605469,-0.0560303,-0.121338,0.0966797,0.251953,0.140381,0.0078125,-0.0917969,-0.289032,0.0821228,-0.14209,-0.15332,-0.149414,-0.0581055,0.330078,0.0969238,0.121094,0.192871,-0.111633,0.0376511,-0.00683594,0.0185547,-0.0332031,-0.395508,-0.517578,-0.0727539,-0.112915,0.265625,-0.118164,0.240723,0.0664062,0.0793457,0.331055,-0.152344,0.0581055,-0.148315,0.101562,-0.171631,-0.123047,-0.291435,0.134155,0.297668,0.288574,-0.503906,0.00274658,0.0188599,0.0708008,-0.21582,-0.143066,0.0332031,0.0185547,-0.273438,0.12207,0.139404,0.0703125,0.190979,-0.193573,0.0848694,-0.168701,-0.081543,0.0573425,0.103516,0.0678711,0.0263672,-0.00329208,0.125488,0.0273438,0.11145,-0.225098,0.124023,-0.24292,0.0146484,0.228516,0.368164,-0.019043,0.0012207,-0.0549316,-0.134125,0.0565643,-0.0529938,0.00439453,-0.0913086,0.0537109,0.0593262,-0.190918,0.477051,0.198242,-0.0351562,-0.0654297,-0.0639648,0.361816,0.165039,0.0612793,0.0566406,0.106445,-0.034668,-0.118896,0.103271,-0.31543,-0.0507812,0.271484,0.03125,-0.0166016,-0.244141,-0.288086,0.175293,-0.157471,0.309479,0.230469,-0.00195312,0.0078125,0.165527,-0.320312,-0.078125,-0.0644531,0.195312,-0.28125,0.0820312,0.0249023,0.152344,0.0410156,-0.223511,0.060791,0.2146,-0.0874023,-0.0292969,0.244629,-0.0253906,0.205078,0.0158691,0.15918,-0.172363,-0.456543,-0.264648,-0.101562,0.392578,0.134266,-0.0839844,0.164307,0.326904,-0.421143,-0.292969,-0.145508,0.293276,-0.0830078,-0.0395508,-0.00732422,0.390137,-0.0993652,0.288086,-0.0820312,-0.13916,0.243164,-0.0810547,-0.369629,0.310059,-0.0673828,0.322266,-0.174805,-0.060791,-0.015625,0.370117,0.00585938,0.12793,0.0297241,0.116455,0.0332031,-0.362305,0.0908203,-0.18042,0.149292,-0.0981445,-0.180176,-0.112305,-0.090332,0.20459,-0.043045,-0.218994,0.0458984,-0.0937195,-0.03125,0.161621,-0.157227,-0.098877,-0.218262,-0.109375,0.0644531,-0.0612793,0.0175781,-0.401367,-0.351562,0.110352,0.0366211,0.333984,-0.0869141,-0.264648,-0.036377,-0.0570068,-0.109592,0.154297,-0.178711,0.166016,-0.338196,0.137207,0.308594,0.118164,0.122803,0.182129,-0.136719,0.19577,0.078125,-0.180481,-0.363281,-0.0206299,-0.213379,-0.219116,0.223145,0.214844,0.0949707,-0.0546875,0.138672,0.103516,0.220215,0.138672,-0.0742188,0.0244141,-0.363312,0.0136719,-0.255371,-0.0517578,0.123291,-0.312988,0.154297,0.0273438,0.160645,-0.0195312,0.0854492
couch:sofa,-0.00292969,-0.132812,-0.127293,-0.0390625,-0.169922,0.0374451,-0.0622559,-0.0380859,0.00976562,-0.117432,0.134277,0.0341797,0.0280762,0.00146484,0.15625,-0.00805664,0.147461,0.0517578,0.115723,0.145996,-0.081543,0.0716553,-0.0837402,-0.0653076,-0.000976562,-0.156616,0.00878906,0.0751953,-0.0283203,-0.0292969,-0.000976562,-0.115723,-0.00585938,-0.012207,0.0546875,0.101562,0.0415039,-0.0622559,0.220093,0.0252686,0.167969,0.00488281,0.0683594,-0.0057373,-0.109863,0.136719,0.0849609,0.045166,0.0507812,0.196289,-0.157959,-0.0283203,-0.128906,-0.0371094,0.0927734,0.0183105,0.0,-0.0471115,0.172852,-0.112793,0.0180664,-0.0444336,0.231445,0.186523,0.109863,-0.0322266,0.22168,0.065918,0.0357666,0.00488281,0.125,0.0561829,0.0279236,0.0380859,0.126465,0.0539551,0.0310059,-0.0273438,0.083252,0.261719,-0.0679932,0.153015,0.0251999,-0.0510254,-0.0141602,-0.101807,0.0253906,0.0585938,0.0117188,-0.052002,-0.152344,0.081665,0.146973,-0.174805,0.157227,0.112427,0.0117188,0.0249023,-0.206055,-0.0126953,-0.00402832,-0.123047,0.111328,0.03125,0.225586,-0.0405273,-0.0966797,-0.15863,0.101624,-0.119141,-0.157227,0.0180664,0.0742188,-0.0771484,0.161133,0.0517578,-0.101074,0.0820312,-0.00140381,-0.0371094,-0.162598,0.0847168,-0.0849609,0.00830078,0.115479,-0.0791016,0.0141602,0.112431,-0.168945,0.0927734,-0.115112,-0.043457,0.177734,-0.0830078,-0.0712891,0.0234375,0.214355,-0.0767822,-0.0302124,-0.0224609,-0.0905762,-0.0136261,0.217758,-0.0693359,0.0109863,0.0234375,-0.0698242,-0.0552979,0.196777,-0.0712891,0.0722656,0.0898438,-0.156738,0.0437012,-0.121094,0.0671387,0.177734,-0.0546875,0.107239,0.0390625,0.215576,-0.107666,-0.208496,0.0161133,-0.0166016,-0.0888672,-0.0429688,0.03125,0.0969391,-0.148193,0.094635,-0.0966797,0.132812,0.138672,-0.0195312,0.0117188,-0.148438,0.0561523,-0.130859,-0.125,0.0615234,-0.141602,0.104492,0.101807,-0.0537109,0.193115,-0.182617,-0.015625,0.231445,0.0898438,0.0898438,0.225586,0.0331116,-0.131348,-0.0214844,0.0195312,-0.074585,-0.012207,0.0678711,-0.0537109,0.046875,0.152588,0.0683594,-0.0723877,-0.00390625,-0.0498047,0.122377,-0.148926,-0.12793,-0.0371094,0.132812,0.0986328,-0.113281,-0.141113,0.0126953,0.0390625,0.0507812,0.0429688,-0.0976562,-0.3125,-0.00488281,-0.00146484,0.0551758,-0.24292,0.0449219,-0.104614,-0.116943,0.0785522,0.0959473,0.0435791,0.0693359,-0.0449219,0.0983887,-0.0644531,-0.0424805,-0.0654297,0.00683594,-0.0756836,0.00439453,0.115891,-0.00390625,0.125,-0.0688171,-0.0532227,-0.043457,0.0302734,-0.115479,0.0854492,-0.149414,-0.121094,0.0373535,0.0234375,-0.00585938,0.0,0.0527344,0.0483398,-0.00585938,-0.188965,-0.101807,-0.0817871,-0.253662,-0.127441,-0.13916,0.0258789,0.0731468,0.0273438,0.0588379,0.0849609,-0.136719,-0.16333,0.119141,-0.0625,0.211395,0.000976562,-0.116516,-0.0332031,-0.205322,-0.0205078,0.0106201,0.0263672,0.175781,-0.0944824,-0.0410156,0.101562,-0.278687,-0.0499573,0.0625,-0.03125,-0.0351562,-0.235352,0.129883,-0.112793,-0.0722656,0.0253906,0.0820312,-0.0214844,-0.169724,-0.0214844,-0.0541992,-0.0882568
cute:adorable,0.0917358,0.0166016,0.207031,0.102539,-0.0351562,-0.146851,-0.0703125,0.0893555,0.140625,-0.105469,0.0778809,0.0837402,0.0219727,-0.0532227,-0.0351562,0.0146484,-0.0114746,0.0280762,0.0742188,-0.231018,0.00415039,0.113281,-0.0737305,0.015625,-0.0197754,0.0183105,0.0358887,-0.0985107,0.046875,0.263672,0.102661,0.225586,0.0917969,-0.230957,0.088501,-0.158447,0.0253906,0.193604,0.209961,0.0136719,-0.0551758,-0.0927734,0.0488281,-0.0708008,-0.173096,0.0595703,0.102783,-0.078125,0.10849,0.22876,-0.265259,-0.00393677,0.191895,0.0371094,-0.0751953,0.0854492,0.0898438,-0.00488281,0.0786743,-0.0325317,-0.0939941,0.0878906,-0.0981445,0.0166016,-0.0928192,-0.0196686,0.0888672,0.0239258,0.0253906,0.00195312,-0.111328,0.0732422,0.1875,-0.120605,-0.129883,0.0195312,-0.0610352,0.168091,0.0966797,0.128906,0.09375,-0.104736,0.0175781,0.130371,0.0693359,-0.0683594,-0.154053,-0.107422,0.0697174,0.0157166,0.11084,0.246094,-0.214844,-0.0947266,0.145874,-0.0640869,0.100098,-0.00924683,-0.0864258,0.124786,-0.0927734,0.0940857,-0.0454712,0.0180664,0.323242,0.102539,-0.00952148,-0.0449219,-0.090332,-0.0475464,-0.0917969,0.13623,0.0296021,0.0302734,0.151855,-0.00585938,0.0146484,0.0986328,0.144714,0.259766,-0.175781,0.0839844,-0.0600586,0.0517578,-0.10083,0.0654297,0.12207,0.116211,0.144531,-0.224365,-0.0576172,-0.104492,0.173096,-0.132812,-0.0371094,0.138672,0.0337524,0.0696716,0.100586,-0.0800171,-0.0498047,-0.178345,-0.0371094,-0.148438,0.0734863,-0.00976562,-0.128662,0.0107422,0.0673828,0.103516,0.00463867,0.0754395,-0.0683594,-0.0471497,0.0917969,-0.0576172,-0.120605,-0.00878906,0.0927734,-0.123962,0.182182,0.104492,-0.28125,-0.167969,0.0881042,0.078125,-0.15332,0.153076,0.0185547,-0.108398,-0.231934,0.0733032,0.0209961,-0.12793,0.0817871,0.179688,0.186523,-0.0206909,-0.0488281,0.123535,0.304688,-0.0820312,-0.0908203,0.149902,0.0240479,-0.105469,0.238281,0.122559,0.0695801,-0.192444,0.0463867,0.0164185,-0.106644,0.107422,0.14502,-0.0742188,0.0487061,0.189453,-0.090332,-0.115723,0.195801,-0.0561523,-0.0737305,0.111328,-0.09552,-0.0664062,-0.00390625,-0.0501099,-0.0742188,0.0673828,0.166016,-0.043457,-0.0437012,0.0219727,-0.00878906,-0.197754,0.0722656,0.163086,-0.130859,0.157227,-0.0222778,-0.078125,0.048645,0.0294366,-0.017334,-0.168884,-0.146973,-0.0576172,0.0078125,0.0883789,0.0185909,0.0394287,-0.135681,0.0471191,-0.0742188,-0.0878906,-0.21582,0.0722656,0.105469,-0.160156,0.313477,0.0078125,0.00878906,-0.0872345,-0.0107422,-0.0898438,0.0371094,0.0590668,0.0599365,0.119141,-0.0351562,0.144531,0.0449219,-0.123047,0.12793,0.0263672,-0.0279541,0.0419922,0.230957,0.173828,0.119781,-0.100891,-0.212402,-0.164062,-0.176025,-0.0200195,0.108398,-0.13916,0.251465,-0.165497,0.0703125,0.0976562,0.0898438,-0.154297,0.00195312,0.0195312,0.00146484,-0.195068,-0.11879,0.256836,0.0869141,0.00756836,0.36377,-0.0947266,-0.205994,-0.0856934,-0.00195312,-0.128174,-0.064209,-0.0498047,0.145508,0.144043,-0.052002,0.249023,0.0328827,-0.0507812,0.102539,-0.133301,-0.045166,-0.165039
darken:color,0.230865,0.137695,-0.141357,-0.169922,0.140564,0.331055,-0.293823,0.65332,-0.180908,0.122559,-0.524414,0.0756836,0.241943,0.218262,0.0441895,0.318359,0.326172,-0.203125,0.09375,0.160156,0.430908,-0.215454,-0.0131836,-0.0195312,0.0517578,0.211914,0.423828,-0.141174,-0.0546875,0.206055,0.0332031,-0.181885,-0.26123,-0.46582,-0.0283203,-0.205322,-0.0800781,0.0397949,0.0991211,0.017334,0.347656,-0.0439453,0.234375,-0.339844,0.23877,0.153198,-0.280762,0.0507812,0.205566,0.123047,-0.151855,0.242371,-0.0700684,-0.196289,0.141113,-0.20459,-0.111633,-0.334473,0.0478516,-0.0864258,-0.297363,0.0507812,0.238708,-0.00878906,0.101196,0.00488281,0.160706,0.0371094,-0.29248,-0.166534,0.182617,-0.0410156,0.0698242,0.250244,-0.214111,0.0693359,0.0078125,-0.0166016,-0.102539,-0.00585938,0.111328,-0.306152,-0.257812,0.106445,0.00683594,0.279297,-0.228516,0.124268,-0.488281,0.227234,0.0761719,-0.172852,0.138794,-0.296387,-0.160522,-0.229248,0.0913086,0.144806,-0.175278,-0.186279,0.0407715,-0.4375,0.298828,0.0449219,0.389893,-0.166199,-0.439453,0.157227,0.129883,0.0390625,0.267578,-0.0901489,0.121094,-0.473633,-0.0722656,-0.0615234,0.0726318,0.193604,-0.088623,0.20459,-0.0234375,-0.0993652,0.0561523,-0.178223,-0.228027,-0.289062,0.212555,0.205322,0.032959,-0.0478516,0.372559,0.412628,0.416992,-0.0141602,0.0498047,-0.18335,0.0849609,-0.12915,0.171875,-0.341797,-0.159668,-0.0385742,-0.154297,0.0710449,0.48877,0.012207,-0.187988,-0.181396,0.0712891,0.027832,-0.0113525,-0.439453,0.25,-0.0200195,-0.0339355,0.277588,0.0185547,0.188477,-0.185547,-0.0292969,0.2146,-0.129028,-0.157715,-0.449219,0.472656,0.0131836,0.126953,0.379883,0.283691,0.145996,0.275146,-0.0927734,0.00390625,-0.0136719,0.192383,-0.169922,-0.0737305,0.29248,0.231934,-0.276367,-0.129883,0.0258789,0.218262,0.0898438,-0.355469,0.557861,-0.128601,0.223145,0.0734863,0.276489,-0.324707,0.112061,0.369629,0.361084,0.0602417,0.196289,0.138184,0.00537109,0.336914,0.0078125,0.179443,0.0022583,0.0195312,-0.729492,0.302948,-0.0415039,0.146851,-0.240967,-0.157715,-0.209961,0.176514,-0.163895,0.0595093,0.210938,-0.283203,0.100281,-0.295898,0.0773926,-0.110352,-0.421875,0.271484,-0.205078,-0.205078,0.12207,0.442383,-0.0830078,-0.175049,-0.121338,-0.00390625,-0.25293,0.0771599,-0.115967,0.170044,0.0341797,0.431641,0.375977,-0.0925293,0.0419922,0.0546875,-0.246582,0.106445,0.210938,0.0566406,0.133423,-0.0766602,-0.332031,0.11377,-0.0507812,-0.0644531,0.240723,-0.131592,-0.219971,0.00585938,0.0786133,-0.309082,0.0605469,-0.0817871,0.364746,-0.218262,-0.169922,-0.453125,-0.210938,0.00683594,0.0964355,0.0820312,-0.0532227,0.0161133,0.0910645,-0.00537109,-0.245117,0.177979,0.42041,0.046875,-0.154907,-0.0341797,-0.299316,-0.452087,0.0546875,-0.00976562,0.126953,0.116699,0.156738,-0.0400391,0.278809,0.522217,0.0603027,-0.134766,0.294922,-0.160156,0.369141,0.41748,-0.0648193,0.00146484,0.13916,-0.200684,0.0424805,-0.17041,-0.278076,-0.046875,-0.178223
death:population,-0.108154,0.0532837,0.257812,0.102783,0.123047,0.337402,0.281738,-0.244629,0.15918,0.449219,0.548828,-0.21582,-0.21167,0.140625,0.40332,0.0110474,0.219391,0.0566406,0.229492,0.196289,0.177734,-0.154297,-0.438477,0.0887451,0.344116,0.336426,0.485474,-0.669922,0.0112305,-0.0574646,-0.14978,0.307129,0.19043,-0.181519,0.107178,0.154755,-0.0151367,-0.225586,-0.00241852,-0.448364,0.0327148,-0.160522,0.206177,-0.187744,-0.12207,0.115479,0.0253906,0.0488281,0.241333,0.113342,-0.0786133,0.378906,-0.046875,0.453125,0.152832,0.0712891,0.0634766,-0.0683594,-0.137939,-0.140869,0.0375977,0.242676,0.3125,0.351318,-0.33252,0.157776,0.159424,-0.336914,-0.113281,0.116455,0.338623,0.0244141,-0.127197,-0.0221405,-0.402451,0.166748,0.295898,0.0473633,0.03125,0.232422,0.500488,-0.160889,0.0883789,-0.0263672,0.202148,0.072876,0.36084,0.00878906,-0.174194,0.226562,0.165527,-0.0556641,0.0678406,0.0844727,0.194336,0.365234,0.109375,0.382812,-0.166504,0.0314941,-0.236816,-0.0125732,0.394531,-0.241211,0.0702515,0.193359,-0.157227,0.0150909,0.159668,0.119629,0.03125,0.356445,0.188477,0.0264893,0.293701,-0.235352,-0.155273,0.0996094,-0.25,0.462891,0.160522,-0.225586,0.19043,-0.090332,0.154984,-0.591797,0.324219,-0.0126953,0.249054,-0.0258789,0.101562,0.245117,-0.128418,-0.0841064,0.132233,-0.192459,0.156006,-0.0358887,-0.00146484,0.133301,0.0964355,0.222412,-0.428467,-0.178711,-0.172852,0.0725098,-0.464844,-0.134766,-0.00415039,0.052002,0.163086,0.0219727,0.308594,-0.0355225,-0.112305,0.112793,-0.0065918,0.211914,0.145752,0.140869,-0.0078125,0.11084,0.0341797,0.412109,-0.29541,-0.3125,-0.0957031,-0.297852,-0.168457,-0.120483,0.308838,-0.0910645,-0.0390625,-0.605469,-0.351562,-0.197212,0.0693359,-0.00488281,0.156738,-0.140625,0.00927734,0.26123,0.306641,0.192383,0.459473,0.194153,0.0380859,-0.0415039,0.129395,0.0292969,0.122559,0.291504,-0.178162,-0.294891,0.389648,-0.142365,0.03125,-0.423828,0.0986328,0.336914,0.160889,-0.301514,-0.492188,0.211426,0.193848,0.0273438,-0.0529785,0.233398,-0.125732,-0.233398,-0.270508,0.110352,0.521484,0.349609,-0.240234,-0.270508,0.0400391,-0.117432,-0.141968,-0.387695,0.0569763,-0.301758,0.0419922,0.095994,0.000488281,0.0761719,-0.247559,0.138062,0.0751953,-0.284912,-0.0808105,0.124023,-0.287842,-0.0195312,-0.095459,-0.0439453,0.332031,-0.0166016,-0.050293,0.0863037,-0.233704,-0.0562744,-0.335938,-0.0244141,-0.344727,0.11792,-0.143555,-0.0988159,0.0864258,-0.529297,0.385742,0.490234,0.219727,-0.250244,0.0117188,0.236816,0.0392456,0.160156,0.216309,-0.0328522,0.154785,0.224609,-0.249512,0.0322266,0.00390625,-0.0410156,0.0906677,0.143555,0.172363,0.0556183,0.286865,0.107422,-0.239777,-0.0527344,0.130737,0.581055,-0.0367432,0.256104,0.15625,0.00488281,0.052002,-0.148926,-0.202881,0.0172119,0.258667,0.163513,-0.0888672,0.0488281,-0.220947,0.125488,-0.0585938,-0.289062,-0.258545,0.183838,-0.30957,0.134521,0.20752,0.185547,-0.298828,0.494141
dim:light,0.00488281,0.183594,-0.137695,0.284424,-0.0893555,0.23584,0.105469,0.0214844,0.0908203,0.0449219,-0.180176,0.0361328,-0.0142212,0.285645,-0.121826,-0.0671387,0.481232,0.0244141,-0.0222168,0.105469,-0.0385742,-0.0115051,-0.146484,0.0322266,0.0325928,0.0966797,0.0782471,-0.237161,0.174438,-0.00769043,0.00292969,-0.151367,-0.383789,-0.148935,0.200684,0.015625,-0.141357,-0.0102539,-0.0637207,0.210449,-0.00585938,-0.0148926,0.19873,0.0546875,0.177002,0.0138855,-0.0561523,0.0981445,0.0632324,0.186035,-0.228607,-0.192383,0.108887,0.108398,0.126343,-0.0859375,0.0959473,-0.0820312,-0.110596,0.150391,0.0908203,0.147705,-0.0371094,-0.0845947,-0.0668945,0.019043,0.316406,-0.14209,0.0166016,-0.448242,-0.0296936,-0.083252,-0.0488281,0.319214,-0.344971,-0.0623779,-0.0952148,-0.00878906,0.317169,0.03125,0.0966797,-0.0176086,-0.228249,0.252197,0.0531006,0.206726,0.09375,-0.157471,-0.102539,-0.0585938,-0.12207,-0.420898,-0.246094,-0.00683594,0.106934,0.0786133,0.417969,0.0256348,-0.243652,-0.11084,-0.0498352,-0.0185547,0.123535,-0.308594,-0.115479,0.391602,-0.283936,-0.0444336,0.019043,0.0366211,0.259766,-0.11792,0.0385742,-0.22168,0.123047,0.159058,0.0507812,-0.0966034,-0.173828,-0.0478516,-0.0993652,-0.0766602,0.0405273,-0.241211,-0.0966797,-0.419922,-0.0993652,0.0646973,0.11853,-0.113525,0.310547,0.158997,0.199463,0.350098,-0.273438,0.225098,-0.23999,0.173584,-0.0157471,-0.182129,-0.0869141,-0.159164,-0.123291,0.117188,0.145508,0.0151367,-0.282959,0.227051,-0.0393219,-0.106812,-0.0680237,0.220673,0.10791,0.0529785,0.0511475,0.0229492,-0.0646973,0.205139,-0.0117188,0.187012,0.117432,0.065918,0.0986328,-0.189941,0.369141,-0.195801,0.188721,0.0322266,0.0898438,0.0603027,0.0200195,-0.0201416,-0.105469,-0.261719,-0.00976562,0.181641,0.121582,0.0654297,0.0712891,0.249023,-0.249023,-0.08284,0.140137,0.0180664,-0.132812,0.0375977,-0.078186,-0.00585938,-0.144104,-0.126343,-0.14119,0.071106,-0.0626221,0.118164,-0.104492,0.0634766,-0.0498047,-0.123047,0.158569,0.282104,-0.118652,0.158936,0.0592041,-0.367188,0.229492,-0.0078125,0.0585938,-0.233398,-0.351074,-0.0952148,-0.0507812,-0.103253,0.0280762,-0.112305,-0.0585938,0.0698242,0.0409546,-0.10791,-0.121094,0.0649414,-0.161987,0.0498047,0.0351562,0.115234,-0.0205078,0.260742,-0.263672,-0.221436,0.0805664,0.0101318,0.311523,-0.192383,0.287598,0.276367,0.0380859,0.0722656,-0.0234375,-0.251709,-0.0605469,0.046875,0.218994,-0.0784302,-0.111328,0.121582,-0.0366211,-0.0136719,0.302246,-0.0877686,-0.271973,0.180176,-0.234375,0.027832,0.174561,-0.0599365,-0.310303,0.0405273,0.146484,0.0888672,-0.214844,-0.0462646,0.0078125,-0.173828,0.184082,0.152344,-0.169922,0.2052,-0.0449219,-0.233398,0.162109,-0.0234375,0.0594254,0.102051,0.00195312,-0.0595398,-0.175781,-0.186523,-0.0332031,-0.00195312,0.00881958,0.203613,0.176025,-0.0820312,-0.1875,0.101074,0.175049,-0.0688705,-0.0458984,-0.0499878,-0.0240173,0.124756,0.19165,0.106262,-0.074585,-0.0738525,-0.03125,0.00976562,-0.0810547,-0.127075,-0.0214844,0.078125
discount:price,-0.107422,-0.067627,0.256348,-0.0185547,0.114746,0.415039,-0.273804,0.0748291,-0.0195312,-0.124023,0.356445,-0.0305176,-0.0341797,0.081543,-0.0537109,-0.42627,0.338379,0.433594,-0.0605469,0.346191,0.0871582,-0.157715,0.0535889,0.000976562,0.133667,-0.126465,-0.207031,0.0195312,0.0783997,-0.114441,-0.31543,-0.112732,0.0819092,-0.0205078,0.287598,0.259277,0.0556641,-0.13147,-0.16748,-0.25,0.0101318,-0.0541992,-0.120117,0.171875,0.00634766,-0.371094,-0.209961,-0.0429688,-0.019043,-0.0622559,-0.0849609,0.198242,-0.09375,0.209473,-0.13501,-0.159302,-0.0498047,0.00195312,-0.0673828,0.00683594,-0.0644531,-0.290527,0.0302734,-0.266113,0.0556641,0.0136719,-0.081543,0.144806,-0.221191,-0.140381,-0.06604,0.17041,0.0703125,0.0593262,0.288574,-0.0358887,-0.0629883,0.40564,-0.108765,0.210205,-0.154663,-0.22168,0.161194,0.100769,0.00445557,-0.0670166,0.00195312,-0.0234375,0.0537109,-0.0273438,-0.445312,-0.0446777,0.0874023,-0.0334473,-0.00976562,0.147949,0.0742188,0.343262,-0.218018,-0.00585938,0.166992,0.200195,0.0869141,0.0708008,0.0146484,-0.214355,0.169189,-0.37793,0.0473633,-0.0566406,-0.244629,-0.0185547,-0.043457,0.0141602,-0.141113,-0.0126953,0.0444336,0.173889,0.0117188,0.283203,-0.279297,-0.165894,0.00390625,0.0684814,0.321899,0.14624,0.174561,0.302734,0.145996,-0.0439453,-0.0263672,-0.229492,0.212891,-0.034668,0.0761719,0.0424805,-0.293457,-0.0575256,-0.0830078,0.125,-0.050293,-0.238281,-0.216187,0.0336914,0.0949707,0.0146484,-0.451416,-0.0432587,0.12793,-0.129883,0.151978,-0.0141602,-0.102051,-0.098877,0.368408,-0.212101,0.0863037,0.0706787,-0.0673828,0.382812,0.254517,0.0415039,-0.0922852,0.101379,0.015625,0.0581055,0.11898,-0.00488281,-0.222168,-0.0263672,0.111328,-0.0966797,0.0681152,-0.217407,-0.0239258,0.36853,0.0894775,-0.0371094,0.166016,-0.154053,-0.0683594,0.168457,-0.0649414,-0.21521,-0.0541992,-0.232422,0.0859375,0.00488281,0.237305,-0.217285,0.103516,0.00537109,-0.119629,0.207397,0.269531,0.213379,0.101562,-0.114624,-0.124359,0.231323,-0.110779,-0.182617,0.158997,-0.161133,0.0606689,-0.00231934,0.241211,-0.0844727,-0.277527,0.1875,0.141663,-0.0800781,0.0123291,0.0351562,0.193848,-0.134766,0.09375,0.0117188,0.0927734,-0.429688,-0.122314,0.0576172,-0.0637207,-0.167694,0.0045166,0.0424805,-0.0253906,-0.141602,-0.124023,-0.141602,-0.334167,-0.188477,0.00390625,-0.0612793,0.0827637,0.273834,-0.117188,-0.173828,-0.129761,0.0537109,0.153564,0.00415039,-0.262695,0.0531921,-0.207031,-0.104736,0.19873,0.226074,-0.151367,-0.0556641,-0.156433,-0.426758,0.190918,-0.275482,-0.169189,0.233398,0.0144043,0.153564,-0.100098,0.0395508,0.0991211,0.113281,-0.313965,-0.0234375,-0.140137,-0.0314941,0.395508,0.362305,-0.217773,-0.0837402,-0.100098,-0.0600586,-0.139893,0.128784,0.409668,-0.435547,0.0717773,-0.0397949,-0.00634766,-0.0356445,-0.269531,0.0341797,0.104248,0.00830078,-0.0656738,-0.21582,-0.00585938,0.244141,-0.0175781,-0.241211,0.338867,0.00634766,0.0986328,-0.0218506,-0.146484,-0.0283203,-0.294922,0.0247192,-0.156677,0.0913086
fence:hedge,0.17041,0.262177,-0.0432129,-0.0820312,-0.0418701,-0.445068,0.302536,-0.00488281,-0.226074,0.216797,0.26709,-0.363281,0.159668,-0.60498,0.150879,0.0380859,-0.0390625,0.0842285,0.0224609,0.254639,0.219482,0.20459,0.122314,0.387695,-0.0410156,-0.389648,-0.494141,-0.163818,-0.108582,-0.410889,-0.157715,-0.0166016,0.118164,-0.175781,0.00195312,-0.240967,-0.277344,0.589844,-0.0644531,-0.237305,-0.310547,0.397461,-0.0234375,-0.0517578,0.0439453,0.186523,-0.116455,0.0126953,-0.317871,0.272705,-0.193596,0.626953,0.0878906,0.217773,-0.180664,-0.0552979,0.251953,0.52832,-0.0253296,-0.277222,0.109192,-0.269531,0.0732422,-0.272461,-0.0292969,0.341797,-0.345215,0.0985718,0.0281982,0.225342,-0.434814,0.119141,-0.346191,-0.260742,0.205078,-0.260742,0.258453,-0.431641,0.400879,-0.375977,0.0239258,-0.174561,-0.0117188,-0.326477,-0.535156,-0.31543,-0.0476074,-0.291992,-0.0419922,-0.451172,-0.197266,0.224609,0.407959,-0.47583,-0.264648,0.172852,0.123535,-0.0595703,-0.335205,0.401855,0.267578,0.151367,0.0253906,0.191162,0.463867,0.020752,0.0551758,0.199707,-0.239014,-0.0810547,0.110352,-0.0839844,0.384277,-0.163086,-0.288086,-0.175629,-0.13623,0.227051,-0.185547,-0.293945,-0.349609,-0.0418701,-0.0126953,0.0810547,-0.0507812,-0.614258,-0.431641,-0.116943,-0.328125,-0.226807,-0.0507812,0.452148,-0.101395,-0.0332031,-0.407227,-0.0722656,0.20166,-0.290039,-0.277344,-0.279785,-0.425415,0.223145,-0.306152,0.188965,-0.188599,-0.09375,-0.0166016,0.106445,0.376953,-0.241211,0.0107422,0.303223,0.0117188,0.0271606,-0.261719,0.172852,-0.0849609,-0.201416,0.187012,0.344727,-0.173828,-0.0458984,0.138916,-0.251953,-0.164047,-0.411133,0.175781,-0.393555,-0.218506,0.107422,0.235352,-0.162109,-0.041626,0.349121,0.113525,0.276855,-0.537964,0.416992,-0.153641,0.619141,-0.543091,0.230713,0.0742188,0.114746,0.0465393,0.125,-0.19165,-0.30249,0.0351562,0.0756836,0.611328,0.0961914,0.0527344,0.0722656,0.365479,0.0180664,0.299805,0.129395,0.162598,0.211914,-0.238281,0.0910645,-0.174805,-0.00683594,0.259277,0.240479,0.244141,0.0893555,0.125488,0.249512,0.0898438,-0.405273,0.0664062,-0.078125,0.0625,0.259766,-0.205811,-0.072998,0.347656,0.543945,0.145264,-0.195923,0.479492,0.197266,0.102539,-0.117432,0.475586,0.452148,0.243408,-0.159668,-0.0136719,-0.341797,-0.175781,-0.0205078,0.248535,-0.21875,0.0141602,0.320312,0.00195312,0.0996094,0.164551,0.00415039,0.098877,-0.173828,0.00927734,0.158203,0.453491,0.522675,0.141113,-0.0961914,0.0532227,0.313354,0.401489,0.5625,0.261505,0.0732422,0.197266,-0.0507812,0.0234375,-0.109863,0.234375,-0.28125,0.195312,-0.16264,0.399414,0.0974121,-0.13916,0.133789,-0.289062,0.319214,-0.0229492,-0.277832,0.138428,-0.0200195,-0.181519,-0.0976562,-0.0239258,-0.309814,0.475586,-0.25148,0.262207,-0.197174,-0.266113,0.591797,-0.0517578,0.0458984,-0.0390625,0.143166,0.3125,-0.30188,-0.117493,-0.160156,0.216309,-0.013916,0.0136719,-0.113525,0.0703125,-0.664062,-0.103271,-0.215332
flood:water,0.415039,0.0429688,-0.181152,0.26123,0.101929,0.11853,-0.116028,0.10498,0.27002,-0.196289,0.205811,-0.22998,0.26001,0.120728,0.105957,-0.171478,0.209229,0.1745,-0.12088,-0.331055,0.132324,-0.121094,-0.0649414,-0.0891113,0.207153,-0.0415039,0.431641,-0.311523,0.158691,0.196533,-0.196777,-0.038208,-0.404297,-0.0326538,-0.173828,-0.405762,0.0587158,0.00500488,0.0716553,0.0703735,0.231934,0.211914,-0.0166016,-0.154907,0.190491,-0.394531,0.0268555,0.0866699,-0.0522461,0.0783691,0.162109,0.0921021,0.0543213,0.165039,-0.155762,0.110474,-0.142822,-0.553711,-0.078125,0.367188,0.00195312,-0.186768,-0.116943,-0.177185,-0.0854492,-0.145996,0.128418,-0.112488,0.123779,-0.046875,0.0263672,0.134766,0.128906,0.252686,-0.212891,-0.0419922,0.0158691,-0.193604,-0.250244,-0.152344,-0.128174,-0.0394287,-0.0435791,-0.0634766,-0.365234,-0.108398,-0.130371,-0.0244141,-0.306152,-0.262207,-0.24707,-0.313354,0.263184,0.128967,0.0585938,0.170776,-0.118652,0.162842,-0.234619,-0.00585938,0.125732,-0.133667,-0.141541,0.0289307,-0.0961914,0.179688,-0.368164,0.0263672,0.237305,0.154785,0.181152,0.107178,-0.0654297,-0.00585938,0.441406,-0.0371704,-0.0478516,-0.0478516,0.119141,0.234131,0.401855,0.376953,-0.0715332,0.244873,0.192383,-0.0131836,-0.0284424,-0.0664673,-0.0874023,-0.0734863,0.227051,-0.0991211,0.0859375,-0.362305,-0.222412,-0.119385,-0.116211,0.155762,-0.0773926,-0.148438,0.109131,-0.125977,0.0458984,-0.0576172,0.10083,-0.388672,-0.0279541,-0.23877,-0.343262,-0.113281,-0.207031,-0.0532227,0.338867,0.0666504,-0.357666,-0.172852,-0.117188,0.14827,0.358398,-0.0830078,-0.15918,0.0632324,0.167864,-0.188477,-0.0605621,-0.209229,0.492188,-0.015625,0.191406,0.358398,-0.0898438,-0.0717773,0.0229492,-0.24707,0.297852,0.208984,-0.195801,0.283203,0.285156,0.362885,0.0322266,0.0668945,0.0664062,-0.274902,-0.102539,-0.143066,-0.298828,0.111328,-0.144531,-0.00488281,0.213867,0.161133,0.100586,-0.167114,0.072998,0.00390625,-0.0117188,0.248535,-0.280273,0.03125,0.0112305,0.0195312,0.355469,0.128601,-0.0611572,0.166077,0.310699,0.0292969,0.341797,0.362305,0.181641,-0.370605,0.136963,-0.16748,-0.234863,-0.0544434,0.0805664,-0.104675,-0.0991211,-0.212646,-0.0839844,-0.0504761,-0.20166,-0.115234,-0.146973,-0.493164,-0.0852051,0.158203,0.0869141,-0.158752,-0.029541,0.150391,0.258789,-0.136719,-0.227539,0.135918,0.00390625,-0.208984,-0.0605469,-0.0864258,0.312012,0.111328,-0.129944,-0.0461426,-0.0247192,0.185547,0.2238,-0.0505371,-0.135742,-0.259766,0.0541992,0.105713,-0.213867,0.0273438,-0.152832,0.344238,-0.114746,0.0688477,0.234863,0.0283203,-0.0175781,0.00195312,0.621094,-0.0585938,-0.113159,0.351074,0.0788574,0.190674,-0.122559,-0.320801,0.00830078,0.344482,0.107178,-0.160522,-0.00585938,0.15625,0.419922,0.116455,-0.279297,0.0900879,-0.22541,-0.0276642,-0.0546875,0.112305,0.201233,0.266602,0.120331,-0.235352,0.0583496,-0.162109,-0.15918,0.117188,0.0839844,-0.280029,0.23291,0.0791016,0.116211,-0.034729,-0.19165,-0.0102539
force:pressure,0.0166016,-0.108398,0.336426,-0.152588,0.110352,-0.0111694,0.133301,-0.192871,0.118896,-0.123047,-0.212036,0.000488281,-0.0548706,0.0280304,0.179688,0.057251,0.145508,-0.166504,0.0921631,-0.188477,-0.0424805,-0.155762,-0.0595703,-0.323242,-0.0881653,-0.0604248,-0.104248,-0.0158691,-0.0766602,0.00708008,0.0759277,0.0810547,-0.343262,0.323242,0.0307617,-0.127686,0.180176,-0.0410156,0.241211,0.072464,-0.0551758,-0.0458984,0.130615,0.443359,-0.192871,0.0551758,0.0146484,-0.202148,0.297119,0.104492,-0.0551758,-0.187256,0.228271,-0.117065,0.167969,0.135498,-0.00488281,-0.136963,-0.412598,-0.104492,0.410675,0.160812,0.137695,-0.0341797,-0.21582,0.341797,-0.0722046,0.00976562,-0.126953,-0.059082,-0.292969,0.191833,-0.175293,0.153564,0.167114,-0.189453,-0.117188,-0.310059,-0.175781,-0.367188,-0.214111,-0.158447,-0.0976562,0.162476,-0.0839844,-0.0332108,0.109375,0.0629883,0.233887,-0.0849609,-0.317383,0.0567627,0.139771,-0.321289,0.384766,-0.216797,-0.133057,0.0458984,-0.0644531,0.0546875,0.199738,0.208496,0.00660706,0.303711,-0.229004,-0.181641,-0.213379,0.136719,0.0,-0.0154724,-0.0168457,0.0375977,-0.163574,-0.187988,-0.0742188,0.421875,0.182007,-0.107666,0.111328,0.0175781,0.29248,0.0400391,-0.0683594,-0.246826,0.517578,0.277588,-0.270508,-0.215332,-0.0600586,0.00146484,0.130859,-0.314941,-0.200684,0.186768,0.0456543,0.026123,-0.677734,-0.259277,0.292969,-0.0600586,0.209961,-0.200684,0.0698242,0.284424,-0.012207,0.0405273,-0.0838013,0.108887,-0.122314,0.319336,0.012207,0.0412598,0.0124435,-0.078125,0.285522,0.0664673,0.197998,-0.098877,-0.0331726,-0.0114746,-0.121338,-0.203857,-0.0102539,-0.473633,-0.0761719,0.0341797,-0.0913086,-0.141968,0.0297852,0.0310059,0.0153809,-0.196533,0.0463867,-0.144043,0.0914307,0.398193,-0.0234375,0.167725,-0.0810547,-0.0273438,0.202148,0.0984497,-0.113403,-0.0629883,-0.239258,-0.0463257,-0.0292969,0.195801,0.161865,-0.0253906,-0.0368652,0.143066,0.0803223,-0.211426,0.0712891,0.144043,0.0817871,-0.270477,0.111816,0.430908,0.0175781,-0.119141,-0.112,0.074707,-0.0646973,0.0195312,0.164062,0.11084,-0.13916,-0.0117188,0.0551758,-0.246338,-0.127197,0.0563965,-0.0683594,0.471436,0.149414,-0.219727,-0.0175781,0.0371094,0.185425,-0.0244141,0.27832,-0.0244141,0.269287,-0.203613,0.19043,0.318359,0.0771484,-0.147949,-0.140869,0.14563,0.0419922,-0.147949,0.0576172,0.237549,0.0415039,0.0146484,0.0375061,-0.254883,0.0185547,0.0415039,-0.317596,0.193848,0.145508,0.198242,-0.245392,-0.157471,0.0934448,-0.105469,-0.0214844,-0.128906,-0.118286,-0.0148926,0.125732,-0.514648,0.045166,0.157227,-0.288574,-0.103882,-0.067688,-0.213623,-0.232422,0.253906,0.0805664,-0.233643,-0.098877,0.065918,-0.16748,0.372314,0.015625,-0.11377,-0.468262,0.0246582,0.240723,-0.182861,0.0449219,0.288086,0.0214844,0.119629,-0.0253906,0.0844727,0.0435791,-0.0715179,-0.0117188,0.302734,-0.0495605,-0.457031,-0.103516,0.240234,-0.307617,-0.125916,0.183594,0.0146942,-0.294922,-0.293213,-0.0990601,-0.120605,-0.0236206,0.0507812
heat:temperature,0.28125,0.217773,0.050354,-0.334961,0.0976562,0.234863,0.104004,0.0742188,-0.175034,-0.0195312,0.0185547,-0.174316,0.078064,-0.115906,0.24231,0.101562,0.0537109,0.240631,-0.225586,0.101562,-0.0483398,0.11084,0.206055,-0.0777588,0.0849609,0.0996094,0.146484,-0.246582,-0.0878906,-0.0488281,0.130859,0.213867,0.0893555,-0.0771484,0.397461,0.0957031,-0.232422,-0.187744,-0.200195,0.0136719,0.0791016,-0.25293,0.184082,0.158203,0.0471191,-0.0585938,0.178711,-0.109863,0.205078,0.0644531,0.304688,0.194336,0.101318,0.166016,-0.23877,0.0498047,-0.0537109,-0.119324,0.0766602,-0.144531,-0.256348,-0.201172,-0.0717773,0.231934,-0.408203,-0.121826,-0.452148,-0.265625,-0.527344,0.0400391,-0.0393677,0.116531,-0.0800781,0.103516,0.407227,0.0742188,-0.150391,0.295898,-0.305176,-0.155762,-0.0800781,-0.0273438,0.00634766,0.0905762,0.033844,0.200684,-0.0319138,0.389923,-0.212402,-0.351562,-0.112305,0.163086,0.125,0.0166016,-0.21875,0.0260925,-0.314941,0.198242,-0.234375,0.14502,-0.203613,-0.208008,0.0791016,0.09375,-0.157959,-0.169922,0.0957031,-0.350586,0.140625,0.0709229,-0.0302734,0.19165,0.098877,0.366211,0.270508,-0.0944824,-0.14502,0.0175781,-0.0292969,0.245422,-0.267578,0.0563202,0.098877,-0.223145,-0.0761719,0.00195312,-0.0371094,0.10791,-0.230957,0.0672607,-0.0429688,-0.352051,0.17627,0.015625,0.0632935,-0.239868,-0.158203,0.0341797,0.102539,-0.112793,-0.0288086,-0.0551758,0.0987549,-0.0717773,0.0620117,-0.0495605,-0.44043,-0.0820312,-0.0527344,0.0914307,0.145142,0.0507812,0.523438,0.138672,0.0974121,-0.125,-0.0859375,-0.266602,0.0446777,-0.108398,-0.0136719,0.256348,-0.481445,-0.0698242,0.205566,0.0744629,0.117188,0.228516,0.15625,-0.142578,0.301758,-0.257812,-0.00720215,-0.0718632,-0.203125,-0.128418,0.267334,0.161987,-0.0390625,0.0766602,0.0114746,-0.0234375,-0.203125,0.00437164,-0.0606079,0.00683594,0.184204,-0.03125,0.330078,0.03125,0.0500488,-0.156494,-0.12085,-0.127869,0.0612793,-0.046875,-0.156616,0.170776,-0.109131,0.196411,-0.236328,-0.0603027,0.262695,0.0488281,-0.178711,0.09375,-0.0742188,-0.215088,-0.208252,0.0533447,-0.00195312,-0.110352,0.133789,-0.160156,0.249268,0.09375,-0.34375,-0.1875,-0.00585938,-0.396484,-0.336304,-0.138885,-0.0452881,-0.157715,-0.0869141,-0.0908203,0.242432,-0.137451,0.251465,-0.274292,-0.0688477,0.342773,0.0568848,0.337402,0.101562,-0.151085,0.0195312,-0.0532227,0.0429688,-0.0419922,0.00805664,0.0672607,0.21582,0.0234375,0.39502,-0.224121,0.354614,0.172241,0.0283203,0.101562,0.139893,0.0234375,0.0649414,0.0805664,-0.29187,0.258789,0.0566406,0.163574,0.253906,0,-0.0322266,0.294922,-0.131836,0.197266,-0.0249023,-0.0927734,0.0708008,0.227539,-0.09375,0.205078,0.192871,0.207275,0.137451,0.0258789,0.117188,0.404297,-0.167969,-0.0703125,-0.202637,0.157227,-0.220703,-0.105103,-0.226562,-0.111816,-0.151855,0.176758,-0.296021,0.287231,0.190918,-0.326172,0.122147,-0.0888672,-0.0986328,-0.200195,-0.0935059,0.039917,-0.0424805,-0.0410156,-0.129181,0.0117188
hill:mountain,-0.0595703,0.160645,0.0839844,0.0307617,-0.222656,-0.256348,-0.111816,-0.0859375,-0.339844,0.0845947,0.227539,0.168579,0.0088501,0.23999,0.0869141,-0.0759277,0.179199,-0.168457,-0.0368652,-0.115234,0.0180664,0.310181,0.0641479,-0.0498047,0.0625,-0.0859375,0.0751953,0.112793,-0.270508,0.25,-0.0761719,-0.186035,0.015625,0.15332,-0.0273438,-0.179688,0.110352,0.0777588,0.117432,0.0712891,0.0552979,0.0078125,0.185547,-0.0437012,-0.0858765,0.144409,-0.149902,0.0105591,0.0124512,-0.175293,0.0449219,0.275391,-0.0131836,-0.17395,0.0241394,0.0317383,0.0185547,-0.0115967,0.046875,-0.0496216,0.0761719,-0.15332,0.0158691,0.00292969,-0.03125,0.00878906,-0.168457,0.126709,0.132935,0.208496,-0.0185547,0.329102,0.100342,-0.394775,0.132812,0.0195312,-0.0498047,-0.185547,0.0649414,0.0253906,0.0517578,0.147949,0.0673218,-0.0336914,-0.0310059,0.197693,0.210541,-0.00585938,0.133789,-0.3125,-0.246338,0.186523,0.104248,0.0551758,-0.101807,0.101562,-0.0180664,0.198242,-0.203613,-0.145508,0.328125,0.0222778,0.0592041,0.0078125,-0.0585938,0.0253906,0.0341797,0.136475,-0.122559,0.149902,0.160156,-0.0959473,-0.172363,-0.00390625,0.00366211,0.0810547,0.159668,-0.0443115,-0.0820312,0.134766,0.0361328,0.182373,0.0725098,-0.121582,-0.288086,0.0435791,-0.20813,0.179382,0.0913086,-0.234131,-0.0537109,-0.216797,-0.145508,-0.0974121,0.0366211,0.158203,0.0791016,-0.0322266,-0.160645,0.0390625,-0.083252,0.223145,-0.0244141,-0.172852,-0.0761719,-0.00708008,0.23584,-0.125977,-0.0766602,-0.0771484,-0.0944824,-0.0117188,0.251709,0.0380859,0.152344,0.0893555,0.0,0.0380859,0.117676,-0.247803,0.00488281,0.0244141,0.117188,-0.172974,0.113953,-0.158691,-0.189941,0.0784912,0.125977,0.0338745,0.130371,0.059082,0.121094,-0.0881348,-0.174316,-0.166504,0.222656,-0.00390625,0.0270691,0.236328,0.0292969,0.152832,0.140381,-0.0314331,0.127686,0.0254517,0.393555,0.101074,0.0335083,-0.195801,0.0878906,0.0716553,-0.211914,-0.240723,0.13501,-0.0869141,0.0884705,0.225098,0.216553,0.0114746,-0.0415039,-0.210449,0.0722656,-0.081543,0.0224609,-0.191406,-0.213379,-0.0317383,0.303223,0.10437,0.194336,-0.03125,-0.262695,-0.0395508,0.125,0.17334,-0.0834961,-0.295898,0.183594,-0.097168,-0.0166016,0.124756,0.078125,0.156006,-0.157593,-0.143066,0.160156,-0.0771942,0.0263672,0.0917969,0.092041,-0.259033,0.0715332,0.0898438,0.0950928,-0.28125,0.0688477,-0.0580444,0.181152,0.20166,0.389648,0.301758,0.0136719,-0.189453,-0.203613,0.0839844,-0.00195312,0.111328,0.191895,-0.242188,0.0456543,-0.137207,0.0673828,-0.078125,0.000732422,-0.131958,-0.394531,0.126953,-0.254868,0.0429688,0.00683594,0.126221,-0.112061,-0.00488281,0.207153,0.0634766,0.116699,-0.0621338,-0.0610352,0.0020752,-0.0405273,-0.143555,0.0852051,-0.0917969,-0.259766,-0.214355,-0.0418701,0.117188,0.143066,0.0605469,0.104004,-0.125977,0.0791016,0.0654297,0.141357,-0.0136719,-0.202637,-0.0927734,-0.0783691,-0.189209,0.0146484,0.185669,-0.199219,-0.0541992,0.156494,-0.0767212,-0.107422,-0.296875,-0.169922,-0.123657
house:home,0.169067,-0.150391,0.0371094,0.0709229,0.00537109,0.00134277,0.0482178,0.132568,0.0380859,0.00830078,-0.0795898,-0.162109,-0.029541,-0.117188,-0.282715,0.110596,0.0751343,-0.0841064,-0.0183945,-0.132812,0.200195,-0.102539,-0.0136719,0.0249023,-0.0194702,-0.137817,0.00146484,0.104004,-0.0778809,-0.159973,-0.098877,-0.148682,0.0405273,0.136719,-0.0283203,-0.139282,-0.0610352,-0.0371094,-0.147461,-0.154785,-0.221191,0.0303955,-0.0478516,-0.0126953,-0.0351562,-0.204346,-0.291504,-0.391602,-0.150391,-0.104614,0.0859375,-0.237793,0.208984,-0.212402,0.158813,0.0654297,0.165527,-0.0727539,0.0811768,-0.133301,0.143188,-0.00439453,0.0634155,0.0424805,-0.0976562,-0.038269,0.235596,-0.0229492,-0.0404663,-0.1604,0.162109,0.138672,0.0917969,0.204102,-0.150391,0.174316,0.177246,-0.0408936,0.105591,-0.106689,0.0266113,-0.0400391,-0.115662,-0.081543,-0.138123,0.100586,0.165024,-0.156738,0.161133,-0.0679932,0.123413,-0.100342,-0.000244141,0.173828,-0.11145,0.0710449,-0.266602,-0.192017,0.154785,-0.133789,-0.140259,-0.0126953,-0.0234375,-0.185593,0.0944824,-0.00976562,-0.127319,0.0732422,-0.224121,0.0839844,-0.123367,-0.0737915,-0.0869751,0.194336,0.0864258,-0.15918,0.147552,-0.249023,-0.0214844,-0.0657959,0.102783,-0.0689697,-0.0339355,-0.0983887,-0.0102539,0.0283813,0.0645142,-0.0385742,0.185547,0.081543,0.111572,0.00683594,0.00279236,0.128662,0.15332,0.0888672,0.0499878,-0.000976562,0.257324,-0.0725098,-0.015625,-0.140991,-0.262695,0.13147,0.0302734,-0.053894,0.017334,-0.119751,0.0771484,-0.034668,0.137207,0.097168,0.128906,0.178711,0.0800781,-0.0837402,-0.101074,-0.0161133,-0.076416,0.0373535,0.0751953,0.142578,-0.00244141,0.0141602,0.0493164,0.0426025,0.156677,-0.0192871,0.100342,0.198608,0.0400391,0.0664062,0.00509644,-0.0634766,-0.0859375,-0.30127,0.0302734,0.0540161,0.108887,0.0957031,0.078125,0.0231323,-0.0297852,-0.0385132,0.251953,-0.0751953,0.125488,-0.00195312,0.186157,-0.0244141,0.0136719,0.0666504,-0.214905,0.0134277,0.164551,-0.0195312,-0.0661621,-0.0270996,0.0769043,-0.110596,0.0175781,-0.0446777,-0.121094,-0.0976562,-0.132568,-0.0424805,0.00585175,-0.0126953,0.183105,0.146729,0.15918,-0.0110474,0.160645,0.0032959,0.0576172,-0.00292969,-0.118408,0.163086,0.0253906,0.0894775,-0.134094,0.098999,0.0428162,0.00512695,0.10437,0.00372314,0.151611,0.167969,-0.0108643,-0.0308838,0.00317383,0.0106812,0.00488281,0.149902,0.0117188,-0.166992,-0.0352783,0.0424805,-0.0825195,-0.00537109,0.17627,0.0688477,-0.157471,0.113159,0.0582275,-0.29541,0.0893555,-0.0927734,-0.104004,0.0144043,-0.0942383,0.101074,-0.150879,0.205322,0.00488281,-0.00683594,-0.12793,0.0666199,0.111572,-0.274902,-0.090332,-0.201416,-0.0493164,-0.109375,-0.102539,0.144043,-0.163086,0.0119629,0.0756836,-0.0308838,-0.15918,-0.0739746,-0.015625,0.0668945,0.00146484,0.0183105,0.12793,-0.0307617,-0.0722656,-0.0380859,0.0146484,0.0932617,0.0460205,-0.0595703,0.277832,-0.043335,0.0947266,-0.0446777,0.139893,0.0390625,-0.0996094,-0.00146484,-0.0532227,0.166321,-0.159912,-0.0974121,-0.0118408,0.146545,-0.158264,-0.0250244
house:tent,0.0244141,-0.250488,0.193604,-0.100952,0.249023,-0.118042,0.166992,-0.0883789,0.299805,0.370117,0.0112305,-0.138672,-0.238281,-0.0717773,-0.0537109,-0.179443,0.114136,0.190063,-0.00539398,0.187012,0.245605,-0.544922,0.0107422,0.0703125,-0.174927,-0.0986328,0.191406,0.0585938,-0.154053,0.107422,0.114502,0.0947266,0.194824,0.0258789,-0.0126953,0.110352,-0.331055,-0.00292969,0.0561523,0.183105,0.0390625,-0.0806274,-0.104492,0.293945,-0.324707,0.0275879,0.00585938,-0.367188,-0.237305,-0.0131836,0.00244141,0.190918,0.384766,-0.19873,0.0992432,0.0214844,-0.112793,0.177734,0.00927734,0.0537109,0.0980225,0.105347,0.266113,0.303223,-0.141357,0.289612,0.352539,0.136963,-0.171875,0.0837402,0.124023,-0.139648,-0.0410156,0.115417,-0.0605469,0.168945,-0.0732422,0.123535,0.128204,-0.0258789,-0.19873,0.0466309,0.143555,-0.00390625,0.251526,0.291748,-0.0385895,0.210938,0.200195,0.09021,-0.118774,-0.0294189,-0.171143,-0.155273,-0.019043,0.0825195,-0.549805,0.251953,0.125488,0.243164,0.0917969,-0.231445,-0.0263672,-0.17485,-0.017334,-0.156982,-0.518433,0.331055,0.216797,-0.121704,0.00621033,0.110779,-0.453613,0.231445,0.0615234,0.0214844,-0.0292969,-0.298828,-0.0310059,0.129028,0.207275,0.210938,0.286865,0.0332031,-0.402344,0.0360413,-0.0214233,-0.209473,-0.0473633,0.277832,0.21875,-0.100586,0.0173798,0.278809,-0.0383301,-0.458008,-0.0439453,0.0751953,0.0126953,0.133545,-0.0390625,-0.557617,-0.477539,0.0831299,-0.30127,0.0740356,0.00366211,0.232788,0.0766602,0.034668,-0.12793,-0.197266,0.200256,0.259277,-0.0834351,-0.0297852,-0.249512,0.0136719,0.0165405,-0.0413818,-0.138428,0.506836,-0.155762,0.0854492,-0.123535,0.0389404,-0.101562,0.123047,0.183838,0.32959,0.0390625,-0.158203,-0.16153,-0.24707,0.0078125,0.0107422,0.121094,0.0302734,0.132324,0.226562,0.181641,0.166931,0.00439453,-0.206543,0.461914,0.0283203,0.0214844,0.201172,0.0439453,-0.0864868,-0.0280762,-0.335693,-0.0386353,-0.163086,0.14209,0.0141602,0.173584,0.0,0.0266724,0.167969,-0.335938,-0.0946045,-0.103516,0.132812,-0.157471,0.156372,-0.468666,-0.0336914,0.182129,-0.386475,0.199707,0.0143433,0.210449,-0.0167847,-0.088501,0.144531,0.181641,0.190918,-0.0810547,-0.146484,0.0905151,-0.0322266,-0.167877,-0.111084,0.130249,0.00561523,-0.16748,0.140625,-0.065918,0.252075,0.283691,-0.0445557,-0.322266,0.0639648,-0.319824,0.214844,-0.0736084,-0.318359,-0.108887,0.202637,0.0932617,-0.188477,-0.277832,0.143433,-0.202515,0.124512,-0.216797,-0.0654297,0.51123,0.119873,0.143066,0.118164,0.0914307,0.243408,-0.242676,-0.0856934,-0.0341797,-0.147949,0.149414,0.214355,0.00195312,-0.121094,-0.00830078,-0.157715,0.0737305,0.139648,-0.358398,0.11731,0.0698242,-0.0731201,0.185059,0.0791016,0.00683594,0.00585938,-0.196289,-0.341553,0.374023,-0.0219727,0.120605,-0.0625,-0.265625,0.0371094,-0.305542,0.0600586,-0.0214844,0.137207,-0.123047,-0.0578613,0.0383301,0.161377,-0.03125,0.131592,0.0244141,0.209961,0.0405273,-0.043457,-0.0510864,0.0166931,0.375916,-0.101318
inflation:price,-0.100098,-0.0251465,-0.157227,0.586914,-0.0874023,0.0551758,-0.217773,-0.160645,-0.131836,-0.671875,0.390137,-0.148682,0.249512,0.262207,-0.249023,0.123047,0.455566,0.0981445,-0.15625,0.105469,0.424316,0.350098,0.520874,0.661133,0.174377,-0.469727,0.238281,-0.268738,0.276154,0.227356,-0.0385742,-0.868164,-0.0366211,-0.243652,-0.243652,-0.217285,0.0336914,-0.0244141,-0.163574,0.454102,0.0556641,-0.240234,0.344727,0.291992,-0.178223,-0.120117,0.105469,-0.0224609,-0.0610352,-0.0549316,-0.0400391,0.367676,-0.0654297,0.138184,0.260742,0.00634766,0.11499,0.145508,-0.00830078,-0.0739746,0.286133,-0.203186,0.177246,-0.231689,-0.0732422,0.532227,0.0136719,0.277618,0.109863,-0.0332031,-0.053833,0.0976562,0.0605469,0.0116577,0.0390625,0.0878906,0.0146484,0.147827,0.0445557,0.0291748,-0.143799,-0.0666504,-0.149414,0.223816,0.0681152,-0.0469971,-0.140137,-0.0615234,0.107422,-0.262207,-0.263184,-0.196289,-0.117188,-0.0325317,-0.637695,-0.164062,0.578125,0.15918,0.252686,-0.239502,-0.215088,0.219727,0.290039,-0.143555,-0.0449219,0.00415039,-0.166504,0.185547,0.280762,0.0708008,-0.213379,-0.116211,0.178711,0.336914,-0.312988,0.0439453,0.178711,0.148438,-0.185364,0.0322266,-0.508789,0.0244141,-0.0136719,-0.0223083,0.00855255,0.0578613,0.0986328,0.222656,-0.515137,-0.454102,0.226074,-0.418945,0.147095,0.0400391,0.166016,0.492676,-0.0546875,-0.227539,0.0854492,0.380859,-0.00195312,-0.0527344,-0.327515,0.237793,-0.240723,-0.0595703,-0.265625,0.197952,0.244171,0.0566406,-0.256226,-0.0196533,0.213379,0.383545,0.0700684,-0.0137367,-0.317871,-0.224243,0.285156,-0.0742188,-0.145508,-0.212402,0.0322266,-0.164246,-0.101562,0.0375977,0.0209961,0.723633,0.125488,0.0205078,-0.283203,0.360352,-0.0856934,0.303101,0.0873108,0.265625,-0.0239258,-0.0839844,0.00830078,-0.379395,-0.0292969,-0.204102,0.0205078,-0.639648,-0.093689,-0.154297,-0.134399,0.618164,0.329102,0.131348,-0.0195312,0.0715332,-0.17334,0.0488281,0.165009,0.268066,-0.109863,0.0288086,-0.114594,-0.12793,0.0142593,-0.118164,0.0795898,-0.0722656,0.108643,-0.204895,0.177246,-0.0634766,0.0628052,-0.0730591,-0.062439,-0.558594,0.343506,-0.174805,-0.0351562,-0.462402,-0.285156,-0.186768,0.0952148,-0.0791016,-0.210205,0.0449219,-0.175049,-0.271484,0.0731201,-0.0194092,0.0599518,0.311523,-0.0732422,0.0126953,-0.357605,-0.0244141,0.208008,0.141113,-0.179443,0.15274,0.214844,-0.268066,0.273071,-0.635742,0.0744629,0.139648,0.0776367,0.111542,-0.361328,-0.202148,0.0415039,-0.170898,-0.135986,-0.0986328,-0.299805,-0.386719,-0.26416,0.0553284,0.0490723,-0.171875,-0.036438,-0.414795,0.0766602,-0.0310059,0.14209,0.290039,0.351074,0.121094,-0.0766602,0.179443,-0.0136719,-0.152344,0.170898,0.0866699,0.0166016,0.0742188,-0.184021,-0.0457764,0.0341797,-0.246094,0.219727,-0.149902,-0.0392761,0.11499,-0.036377,-0.197754,0.247803,0.0657043,-0.0170898,-0.262695,0.257324,-0.199951,0.12793,0.269531,-0.141602,-0.199585,0.535156,0.00878906,-0.515625,-0.0908203,-0.163086,0.0637817,-0.0732422,-0.206787
kid:child,0.0195312,0.213379,0.0926056,0.125977,0.228516,-0.136841,-0.26001,-0.0336914,-0.0189819,0.115234,-0.137207,-0.0703125,0.0112305,-0.533203,-0.114258,-0.067627,-0.148438,0.0673828,0.0273438,-0.0820694,-0.12793,0.295044,0.03125,-0.0126343,-0.110352,0.046875,0.0182495,0.0556641,0.0732422,0.179565,0.0929108,0.253418,0.45459,0.304199,0.161133,-0.0837402,-0.0371094,-0.0776367,0.131226,0.282227,0.461914,-0.26709,0.170898,-0.142578,0.0927734,0.1875,-0.276855,-0.106934,-0.0294189,-0.0585938,-0.331055,0.211426,-0.0427246,-0.317383,0.0703125,0.0913086,0.25293,0.00297546,-0.00678253,-0.201172,-0.104248,0.00976562,0.0797729,0.0793457,-0.0219727,0.00952148,-0.138672,-0.115845,-0.0352478,0.223145,0.191406,-0.0950804,0.0751953,-0.145084,-0.0878906,-0.0820312,-0.115967,-0.125854,-0.119629,-0.0449219,0.0175781,0.149658,0.0537109,-0.107666,0.110352,-0.0521545,-0.446289,0.186035,0.244141,-0.262695,-0.219238,0.149353,-0.0546875,0.144653,0.0388184,-0.0219727,-0.170898,0.396484,-0.167725,-0.325684,0.0224609,0.205872,0.180664,0.199707,0.00244141,0.0698242,-0.00195312,0.00805664,-0.243164,0.0102539,-0.168579,-0.0700684,-0.0952148,-0.0681458,0.3125,0.189941,-0.188721,0.0507812,0.292969,-0.195068,0.0195312,-0.0464935,-0.0634766,-0.0898438,0.0686035,-0.142578,-0.168945,-0.0559387,-0.0214844,-0.307129,-0.27124,-0.0849609,0.256348,0.15332,-0.059082,0.203125,0.0839844,0.291504,-0.208496,0.0812988,-0.0126953,-0.103027,0.223389,-0.159058,0.0752716,0.0,0.0889893,-0.401703,0.106201,-0.143799,-0.322266,0.187012,-0.327148,0.0314026,-0.251953,0.143066,0.00170898,0.0869141,-0.10038,0.133667,0.281006,0.0153809,0.108887,0.109375,0.184082,-0.0847168,0.115723,-0.112183,0.156738,0.103271,-0.0744629,0.128174,0.0698242,0.117188,-0.1875,0.0991211,-0.0771484,-0.269339,0.118164,0.173828,0.298828,-0.101562,0.247955,0.210205,-0.0507812,-0.00390625,0.0288086,-0.0476074,0.0844727,-0.27832,0.0889893,0.199219,0.213501,0.233398,-0.0722656,-0.244629,0.0402832,0.144531,0.0275879,-0.0473633,-0.0136719,-0.0437012,0.101562,0.21582,0.0522461,-0.043457,0.116699,-0.199219,-0.277832,0.364258,0.0141602,-0.00146484,-0.0626831,0.0458984,0.0380859,-0.0390625,-0.0900879,-0.0708008,0.0571289,-0.0821686,-0.157227,0.308594,-0.217773,0.124512,0.00622559,0.20752,0.0371094,0.0234375,-0.190308,-0.233887,-0.0147705,0.0594482,0.092041,-0.111115,0.429688,0.102783,-0.135254,-0.00195312,0.128418,0.0653687,0.215637,0.0898438,-0.255859,0.0805664,-0.19812,-0.0761719,-0.139648,-0.0712891,0.0834961,0.0292969,-0.0191956,0.00390625,0.0987549,0.347656,0.0561523,0.0183105,-0.0153503,-0.264648,-0.165283,0.03125,0.101074,-0.0863037,0.065918,-0.188477,-0.0736084,0.0751953,0.169434,-0.110962,0.0996094,-0.0682373,-0.143799,0.0253906,0.204102,-0.0939941,-0.338867,-0.0307617,-0.115723,-0.0644531,0.0465088,-0.0805664,0.0698242,0.129883,-0.0944824,0.205078,-0.169434,-0.163574,-0.258789,0.117676,-0.0387573,-0.236328,0.231445,0.0891113,-0.402344,-0.0117188,-0.199707,-0.0146484,0.0320435,-0.135956,0.0493164,-0.164062
ladder:stairs,0.422852,0.134521,-0.526367,-0.115234,0.108398,-0.12207,0.229004,-0.144531,-0.185059,-0.0771484,0.238281,-0.0561523,-0.259766,0.190674,-0.319336,0.13623,-0.169434,0.0878906,0.00683594,0.114685,-0.0136719,0.0419922,-0.119019,-0.172119,0.139038,0.0126953,-0.185547,0.395508,0.200195,0.460449,0.0561523,0.23114,-0.0830078,0.20813,0.314697,0.571289,-0.256165,0.310059,0.325195,-0.293457,0.145935,0.0214844,-0.190918,0.0338135,-0.0543823,-0.215332,0.250977,-0.0825195,0.350708,-0.0927734,0.0390625,0.182007,0.265625,-0.0888672,-0.0371094,-0.105957,0.0849609,-0.110352,-0.0341797,0.108643,-0.222412,-0.0380859,-0.492188,-0.0327148,-0.288879,0.0870361,-0.233002,-0.190674,-0.169678,0.0444336,-0.237305,-0.313446,0.129761,-0.107422,0.411377,-0.301758,-0.138428,0.0313721,0.289062,0.0527344,0.179077,0.177734,-0.180176,0.297241,0.221924,-0.186195,-0.204712,-0.0568848,-0.181641,-0.0332336,-0.333496,-0.176758,-0.0673828,0.00878906,0.00976562,0.210449,0.101074,0.0585938,0.305176,0.0446777,-0.0117188,0.114258,0.13208,-0.050293,-0.212402,-0.265625,-0.307617,0.0288086,0.163773,-0.248779,0.53418,-0.139648,0.0751953,0.121338,0.100586,0.165527,0.322754,0.168945,-0.0683594,-0.0898438,0.291992,-0.118652,0.0795898,0.278809,-0.234863,0.142334,0.276855,-0.0528564,-0.392578,-0.29306,0.441406,-0.227295,0.0644531,-0.536621,0.0322266,-0.0166016,-0.319336,-0.231445,-0.162109,-0.236328,-0.158539,-0.215332,0.12793,0.143799,-0.015625,0.0351562,-0.0356445,0.148438,-0.0761719,0.235352,0.143555,-0.0935059,-0.460449,-0.275391,-0.242188,0.164062,-0.353516,0.356445,-0.295654,-0.441895,0.024292,0.0625,-0.394409,-0.131836,0.102539,-0.0390625,0.0462646,-0.379883,0.248535,0.445312,-0.0742188,0.0205078,0.0925293,-0.0195312,0.369629,0.335938,0.00488281,0.228027,0.169678,0.324829,0.22644,0.00830078,0.175171,0.165039,-0.441406,-0.0765686,-0.513916,-0.0639648,0.160156,0.114746,-0.0976562,0.00585938,-0.112793,-0.0941772,-0.209961,-0.361938,-0.0800781,0.217773,-0.0224609,-0.257812,0.00683594,0.181396,0.386719,0.105347,-0.59082,-0.180435,-0.176758,-0.178467,0.322266,0.00927734,-0.0185547,0.139404,0.286133,0.0722656,0.282715,0.0859375,-0.17627,-0.25,0.378906,0.121521,-0.203308,0.206299,-0.277832,-0.268661,0.0273438,-0.108032,-0.121521,-0.157471,0.257568,0.303711,0.157227,-0.333008,0.108948,-0.127686,0.0289307,-0.0175781,0.124512,-0.151367,-0.204102,-0.0100098,0.272308,0.0697021,0.0517578,0.130615,-0.385742,-0.114014,-0.0803223,-0.194824,-0.0839844,0.171875,-0.197266,0.293457,-0.0864258,-0.0554199,0.0895996,0.226074,0.188477,0.0253906,0.119873,0.019043,0.184021,-0.138916,-0.199707,0.242676,0.534302,0.109375,-0.226074,0.0723877,0.120605,-0.163086,-0.13623,0.0664062,-0.273438,-0.233887,-0.108887,0.15625,-0.103333,-0.240723,-0.0341797,0.501465,-0.133545,-0.0410156,-0.206604,0.259277,-0.43457,0.0371094,0.65918,0,-0.0795898,-0.274658,-0.120117,0.275696,-0.107422,-0.146179,-0.227539,-0.359375,-0.136963,-0.101074,-0.306152,-0.442383
lower:volume,-0.161743,-0.200806,-0.105408,0.294205,-0.127563,0.240906,-0.124634,-0.0839233,-0.237305,0.0297852,0.157715,0.0739746,-0.0200195,-0.0446777,-0.02771,-0.0244141,0.0825195,-0.227051,-0.193054,0.453125,0.0754395,0.304688,-0.0332031,-0.133301,-0.0212402,-0.215332,-0.196411,0.0527344,0.26709,-0.151489,0.0430298,0.0866699,0.164368,-0.0241089,0.15918,0.0402832,-0.196777,0.010498,0.201294,0.269775,-0.226074,-0.0881348,0.22168,-0.0794067,-0.0556641,0.296875,0.168213,0.273926,0.0571289,0.0273438,0.148926,-0.115479,-0.0488281,0.0283203,0.0150146,-0.246582,-0.374023,-0.25293,-0.264709,-0.192017,-0.0784454,0.181763,0.00976562,-0.0897217,-0.348572,0.164307,0.0863037,0.220459,-0.0664062,0.0794678,0.130859,0.362793,-0.194824,0.177734,-0.112305,-0.0629883,-0.139648,0.416016,-0.113525,0.000610352,0.00488281,0.165039,-0.279297,-0.0090332,0.118408,-0.0652313,0.0595703,-0.0605469,0.0130615,-0.270752,-0.065918,0.00878906,-0.0935059,-0.00195312,0.335938,-0.113525,0.195801,0.23877,0.121094,0.21759,-0.35437,-0.115234,0.38623,-0.0410156,-0.152344,0.252563,0.0654297,-0.195557,0.150879,-0.466797,0.281982,0.12915,-0.121582,0.201416,-0.115479,0.0189819,0.206055,0.113281,-0.422607,0.108887,0.11499,-0.0847168,-0.00149822,-0.164307,0.0233383,-0.307373,0.0419922,-0.0756836,0.192139,0.154297,0.0361328,-0.0410156,0.115967,0.0478516,-0.0364685,-0.455078,0.0488281,-0.186401,-0.128418,0.297363,-0.0836182,0.00390625,-0.112427,0.20166,0.198357,-0.187866,-0.262695,-0.11084,-0.0311279,0.0847168,-0.150879,0.134033,0.0195312,0.0859375,0.130005,-0.0469971,-0.0322266,0.203125,0.162354,0.118408,0.453918,-0.104004,0.342773,-0.197266,0.126404,-0.0819092,0.11377,0.417969,0.114471,-0.330566,-0.185547,-0.131348,-0.125488,0.0012207,0.342773,0.0759277,0.287598,0.0852051,0.0507812,0.193115,-0.421875,0.163269,0.325195,0.291992,-0.367065,0.0245361,-0.00787354,0.0478516,0.338867,-0.398438,-0.18811,0.169922,-0.0895996,0.0195312,0.20166,-0.14917,0.30957,0.233643,0.388672,0.198215,-0.0439453,0.00534058,-0.118896,-0.0366211,-0.176926,-0.350098,0.214355,-0.190186,-0.203857,-0.217773,-0.0361328,-0.172363,0.335938,0.266357,0.21167,-0.0450516,-0.164795,-0.110077,0.0810547,-0.138306,-0.0297241,-0.418335,0.108887,-0.333496,-0.157227,-0.0898438,-0.0878906,0.30957,-0.3125,0.0742188,0.112305,-0.0336914,-0.0147705,0.0552979,0.205566,0.0375977,0.0878906,-0.164551,0.0168457,0.232422,-0.119141,-0.143585,0.364746,-0.206055,-0.377441,0.161133,0.370605,-0.409912,-0.0742188,-0.0704346,-0.0234375,0.171631,0.0737305,-0.209839,-0.0942383,0.0320435,-0.311523,0.459229,0.354492,0.137085,0.0566406,0.0439453,-0.35498,0.260254,0.0339355,-0.0161133,-0.206177,-0.0478516,0.00939178,-0.0717773,-0.208984,0.19043,-0.126587,-0.255859,0.150208,-0.290039,-0.311523,-0.181152,-0.0617065,0.120361,0.161621,-0.113342,-0.495117,-0.0576172,-0.0634766,-0.00622559,0.115723,0.24707,-0.128662,-0.237793,0.193604,0.0556641,0.00195312,0.405273,-0.333496,0.0639648,-0.0518188,0.11084,-0.109253,-0.0649414
make:manufacture,-0.242188,-0.048584,0.139404,-0.0283813,-0.0483398,-0.124268,-0.119629,0.160645,0.173096,0.0117188,-0.0444336,0.0141602,0.081543,0.302734,0.410889,0.0991211,0.40918,0.118958,0.118774,-0.059082,0.263184,0.15918,0.0742188,0.223877,0.000488281,-0.168823,-0.0283203,-0.147034,-0.0706787,0.0545654,-0.0588379,0.269531,-0.135071,-0.0725098,-0.169189,-0.102295,0.105957,0.178955,-0.0126953,0.332031,0.216309,-0.265137,0.0634766,0.150391,0.289307,0.181519,-0.130371,0.0567398,0.355713,-0.0958252,0.092041,0.0493164,-0.0214844,0.0371094,-0.374023,0.40332,-0.256348,0.230469,-0.294434,0.0427246,-0.0540771,-0.0435791,0.0888672,0.184692,-0.083252,0.0185547,0.339233,0.123047,-0.0596924,-0.304688,0.116089,0.0483398,0.133057,0.0895996,-0.0688477,0.0546875,0.379395,0.450195,0.012207,0.0192871,0.0447845,0.0996094,0.0979004,-0.14856,-0.232178,0.0727539,0.0222168,-0.452148,0.103333,-0.228516,0.265625,-0.148849,0.0136719,-0.192871,-0.0465088,-0.0898438,0.0378418,0.477051,-0.257324,-0.375,-0.134003,-0.0914917,0.0462646,0.227539,-0.32373,0.140625,0.0796509,-0.34082,-0.191162,-0.231262,-0.0671387,-0.163574,0.437012,-0.0932617,0.0666504,-0.127441,0.179321,-0.207764,-0.295166,0.327271,0.0600586,0.105469,-0.0160828,0.545898,0.209839,-0.0841675,0.164551,0.192383,0.0491943,-0.0955811,-0.334961,-0.477539,-0.0229492,0.172607,0.216309,-0.0800171,0.0249023,0.090332,0.0895996,0.350586,0.162979,-0.288086,-0.0219727,0.103271,-0.164062,-0.0263672,0.0289307,-0.0498047,0.251099,0.249023,-0.532715,0.383789,-0.105591,-0.0635986,0.141846,-0.16748,0.331543,-0.165253,-0.0837402,0.00292969,-0.119797,0.076416,-0.0546875,-0.203857,0.155884,0.0478516,0.0810547,0.208923,0.198242,0.299072,-0.140137,0.0498047,-0.155273,0.173828,-0.160767,-0.0268555,-0.0438232,0.25293,0.307861,0.307129,0.103424,-0.0585938,0.168457,0.112244,-0.286377,-0.0917969,-0.413086,0.0195312,0.088501,-0.312012,0.202881,-0.411133,0.0012207,-0.00878906,0.0283203,0.0522461,-0.181702,0.0585938,-0.466797,0.03125,-0.143066,0.0541992,-0.0244141,-0.11084,0.132446,0.235352,-0.385742,-0.0560913,0.101074,0.21875,0.0212402,0.139038,0.0117188,0.119141,-0.410156,0.0234375,-0.0585938,0.250977,0.131348,-0.239258,0.169922,0.26123,0.128418,-0.297852,0.0478058,0.169922,0.0583496,0.195312,-0.144775,-0.171387,0.106445,-0.358032,0.0831909,-0.119751,0.375,0.105225,0.361084,-0.318359,-0.154175,0.0859375,-0.0366211,0.0693359,-0.104858,-0.0351562,0.0488281,0.0622559,0.074707,0.0133057,-0.300293,0.223145,-0.149658,0.0683594,-0.200195,0.043457,0.410156,-0.194336,0.0164795,0.284668,-0.154541,0.120117,0.0217285,0.170654,0.0153809,0.205078,0.0776367,-0.0563354,0.0351562,0.140625,0.0258789,-0.25,0.097168,0.156738,-0.141602,0.338867,0.0522461,-0.137695,0.182617,-0.0527344,0.139435,0.0385742,0.118652,0.0229492,-0.286743,0.119873,0.0615234,0.123505,-0.144531,-0.228882,0.0512695,-0.0245361,-0.16626,0.0317383,0.153809,-0.296021,0.046875,0.134766,-0.0100098,0.0632324,0.244385,-0.03125
option:choice,0.189331,-0.0969238,0.258423,0.181641,-0.0424805,0.0585938,0.107422,0.0888672,-0.0761719,-0.344727,-0.03125,-0.283691,0.221191,0.0253906,0.0578003,-0.0566406,0.0634766,-0.202148,0.119385,-0.0253906,0.0463867,-0.0893555,-0.209412,0.00195312,0.137085,0.0693359,-0.104492,0.162109,-0.220215,0.0385437,0.0253906,0.00585938,0.00488281,-0.14917,-0.0449219,-0.100586,0.175781,-0.367188,0.09375,-0.0317383,0.0644531,0.0234375,0.0375977,0.154785,-0.160645,0.0510254,-0.0859375,-0.14209,0.15918,-0.0134583,0.0792236,-0.0732422,-0.101807,-0.255615,-0.138428,0.12207,0.0176086,0.191162,0.0185547,-0.130264,-0.139404,-0.230957,-0.300293,0.184265,-0.0229492,0.0800781,-0.0917969,0.0380859,-0.101868,0.0541992,-0.123779,-0.00146484,0.149872,-0.0530396,-0.0183105,-0.282227,-0.163696,-0.192383,-0.156494,-0.219238,-0.00585938,0.00848389,0.117676,0.151123,0.0321045,0.0610352,-0.00244141,0.0527344,-0.0449219,-0.133789,-0.219421,0.216064,-0.109379,-0.0161133,0.0849609,0.34082,0.0556641,-0.0146484,0.223633,-0.0458984,0.0107422,-0.196899,-0.166504,-0.0478516,0.10376,-0.149292,-0.03125,-0.0878906,-0.00195312,0.0622559,0.167236,0.0930176,0.0415039,0.0673828,-0.167969,0.223145,0.0683594,0.0749512,0.0412598,0.209595,0.4375,-0.0229492,0.0643311,0.176758,-0.00134277,-0.134277,0.0775452,0.0537109,0.0754395,0.0629883,0.201904,-0.249023,-0.0355225,-0.117188,0.0344238,0.179688,-0.112915,0.0825195,-0.168945,0.290421,0.148438,-0.053833,0.278809,0.0614624,0.186646,-0.321289,-0.263428,-0.071106,-0.211426,-0.0373535,0.0639648,0.12207,0.0274658,-0.0126953,0.0998535,0.183411,0.181885,-0.046875,0.0263672,0.118164,0.392578,0.429688,0.199097,-0.139893,-0.0551758,0.113525,-0.0341797,-0.00256348,-0.0610352,-0.0117188,0.105469,-0.195801,-0.158936,0.245209,0.12085,-0.171265,0.0625,-0.00976562,0.0844727,-0.065918,-0.03125,0.0322266,-0.22998,0.144897,0.0361328,0.257812,0.202637,-0.019043,0.129395,-0.146484,-0.20752,0.0166016,-0.0253906,-0.11377,-0.123047,0.0935669,-0.0958862,0.0964432,-0.0947266,-0.0566406,0.0307007,-0.0932617,-0.114258,-0.123047,0.0756836,-0.0957031,-0.0942383,-0.0183105,0.101074,0.142334,-0.0214844,0.00195312,-0.212646,0.0458984,0.0429688,0.206055,0.224854,-0.0239258,0.0930176,-0.0516357,0.162598,0.25293,-0.115723,0.00683594,-0.0855103,-0.0662842,-0.0621948,0.0742188,-0.0509033,-0.00537109,0.0489502,0.116211,0.189453,0.0751953,-0.484375,0.164062,0.0460205,0.0917969,0.235352,0.156982,-0.0913086,0.0683594,0.110107,-0.134033,0.292969,-0.114258,-0.142578,-0.127441,0.100586,0.0795898,-0.147705,0.0908203,0.0506592,-0.0146484,-0.00610352,0.0419922,0.0732422,-0.106262,-0.132935,0.0162964,-0.0574951,0.0722656,-0.0478516,-0.106915,-0.223389,-0.00976562,-0.159668,0.122375,-0.0859375,-0.128906,0.334473,0.0629883,0.043457,-0.0737305,-0.0687256,0.12085,0.198486,0.0695801,0.121094,-0.181519,-0.22049,0.13916,-0.120605,0.165283,0.0292969,-0.169067,0.300537,0.0279541,-0.0366211,-0.255371,-0.0303345,0.141113,-0.000976562,0.0383301,-0.0844727,0.205933,-0.35791,0.0187073,0.0,0.0966797
pants:trousers,0.0374146,-0.194092,-0.000488281,-0.0859375,-0.118164,-0.179443,-0.00585938,0.188782,0.112305,0.0751953,0.131927,0.0253906,0.133301,-0.188477,0.00390625,-0.152344,0.0625153,0.130859,0.124207,0.143372,-0.0107422,0.150391,-0.0828857,-0.025238,-0.0654297,0.0234375,0.0375977,0.00585938,-0.263733,-0.00524902,0.00683594,0.0371094,-0.141113,-0.0516357,-0.0991211,0.102295,-0.0703125,-0.0996094,0.194214,-0.178223,0.0976562,0.306641,0.313477,-0.112549,-0.0492554,-0.0480957,0.149414,-0.00292969,0.291016,0.0408936,-0.1521,0.165039,-0.148438,-0.0152893,-0.0449219,0.0996094,0.193848,0.0400391,0.137939,-0.183594,0.0493164,0.0922852,0.0990601,0.397461,0.177673,-0.262695,-0.0600586,-0.0351562,0.0117188,-0.0830078,0.17041,0.191895,0.0136719,-0.0371094,-0.00390625,0.105957,-0.0332031,0.0078125,0.0310059,0.0969391,0.00585938,-0.0126343,0.0991211,-0.0561523,-0.0537109,-0.211914,-0.116699,0.141602,0.162842,-0.142578,0.133789,0.00170898,0.149902,-0.0644531,0.106445,0.126953,0.0170898,0.130371,-0.101074,0.0195312,-0.0332031,-0.107422,-0.0444336,-0.213013,-0.0302734,-0.123047,-0.195312,-0.0639648,-0.116638,0.0999146,-0.121338,0.104492,0.14502,-0.0299072,-0.0688477,0.246094,-0.00294495,0.117432,-0.179199,0.0166016,-0.184082,-0.103516,0.0712891,-0.0419922,0.129883,0.164673,0.165527,0.141235,-0.0633163,0.128662,-0.0878906,-0.176758,0.0449219,-0.137451,-0.166504,0.0917969,-0.0488281,-0.149658,-0.0126953,0.000976562,-0.20166,-0.208008,-0.0414162,-0.276855,0.0712891,-0.173752,0.184082,-0.0908203,0.175781,-0.101562,0.151855,-0.00708008,-0.0795898,0.0837402,-0.0961914,0.223541,0.220703,-0.0646973,0.0117188,0.284882,0.14502,-0.0513093,0.119141,-0.00537109,-0.0488281,0.169434,-0.0514679,-0.00482178,0.173828,-0.128174,-0.0322266,-0.0986938,0.168945,0.325684,0.140869,0.159424,-0.151367,0.148438,-0.250122,-0.0856628,-0.0229797,-0.115967,0.257957,0.00683594,-0.321045,0.097168,-0.0654297,-0.0151367,0.116455,-0.0078125,0.197998,0.0976562,0.0830078,-0.0292969,0.120361,-0.0449219,0.0996094,-0.0981445,-0.046875,-0.0844727,-0.157959,0.145508,-0.0852051,0.0302734,0.0673828,-0.0610352,-0.0605469,0.0241699,-0.24707,0.149414,0.123047,0.141602,-0.343018,-0.0490723,-0.0142822,0.0957031,0.266602,0.134766,-0.122559,-0.202148,0.105469,-0.0942383,0.065918,0.0117188,0.0600586,0.0739746,0.0205078,0.114746,-0.169434,-0.00488281,0.0078125,0.0181274,0.126892,0.00976562,-0.0413208,0.151367,-0.0341797,-0.333008,-0.0166016,0.177734,0.0615234,-0.0322266,-0.060791,-0.307373,-0.150391,0.0673828,0.0957031,0.0651855,0.0888672,-0.156006,-0.214233,-0.0767822,-0.0725098,0.0292969,-0.0185547,0.0668945,0.03125,0.0771484,0.16626,-0.0390625,-0.0449219,-0.0839844,-0.181152,0.182617,-0.0444336,0.130249,0.149902,-0.0371094,-0.162109,0.0489502,-0.195312,0.0791016,0.14502,0.0908203,-0.369629,0.112305,-0.0675049,0.0484619,-0.118652,-0.164307,-0.00146484,0.104004,-0.0644531,0.00488281,-0.285522,-0.105469,0,-0.0996094,-0.0458984,-0.344238,0.104492,-0.0214844,-0.027832,0.0957031,0.211426,-0.0410156,-0.106445,-0.18457,-0.18335,-0.00390625
paper:parchment,-0.326172,-0.081543,-0.102539,-0.357178,-0.0771484,0.215332,-0.0258789,0.0444946,0.34082,-0.227417,0.277344,0.22168,0.494354,0.0996094,-0.141602,0.0235901,0.0806885,-0.237305,0.155663,-0.041748,-0.121582,-0.119385,0.0263367,0.521973,-0.0559082,0.661133,-0.0654297,-0.00976562,0.161621,0.155762,0.333984,-0.105469,0.273193,-0.0703125,0.076416,0.124023,0.00830078,0.103516,0.347656,0.0712891,0.181519,-0.13385,0.0244141,0.118896,-0.289551,0.126465,-0.129761,-0.368408,0.0610352,0.312012,0.0429688,-0.0749512,0.133789,0.275391,-0.0390625,-0.335938,0.203125,-0.0371094,0.507812,-0.150879,-0.316406,0.0856934,0.0219269,0.0505371,0.26001,0.189941,-0.0380859,0.0379639,0.244629,0.304932,-0.31427,0.0473328,0.0898438,0.0556641,0.0,0.220215,-0.0390625,0.0380859,-0.134277,0.0406799,0.0634766,-0.182617,0.348633,0.262207,-0.0263672,-0.156494,0.181152,-0.165344,-0.200195,0.125908,0.0400391,0.209717,-0.0766602,0.0615234,-0.339111,0.157959,0.0175781,0.262695,-0.00537109,0.441315,-0.0361328,-0.17627,-0.0795898,-0.0458984,0.44751,0.367188,-0.190247,-0.304443,-0.0965576,-0.210083,-0.00976562,-0.202148,-0.249023,-0.101562,-0.235352,0.0892334,-0.0741577,0.21167,-0.0449219,-0.137695,0.0522461,-0.067749,-0.423309,-0.345215,-0.157166,0.342285,0.169189,-0.0395508,0.0407715,-0.722168,0.126892,-0.324219,-0.103516,-0.373047,0.0605469,-0.362183,0.161133,-0.0915985,-0.112061,-0.259277,0.0361328,0.117676,0.327637,0.215149,0.064209,-0.144531,0.0601807,0.0397949,0.0837402,-0.133057,0.0893555,0.147034,0.09729,-0.400879,-0.197266,0.0737305,0.411621,-0.338379,0.162109,0.0117188,0.0878906,0.0395508,-0.0629883,0.458008,0.228149,0.175781,0.308594,-0.0371094,0.176758,-0.0576172,0.185303,-0.147949,-0.308716,-0.169922,-0.0198517,0.15332,0.282715,-0.0751953,-0.0217285,0.34375,0.427716,-0.166016,0.0742188,0.20752,-0.0273438,-0.138672,-0.00390625,0.25293,0.0253906,-0.265625,0.183594,-0.126953,0.0791016,-0.0900879,0.4375,-0.209473,0.167969,-0.0458984,-0.395508,0.097168,-0.105957,0.518555,0.385742,-0.280518,-0.515137,-0.0263672,0.350586,0.178696,-0.0438232,-0.0830078,0.36554,-0.0449219,0.0717773,0.304443,-0.253906,-0.16333,0.015625,0.059082,-0.43457,-0.179443,0.344727,0.254883,-0.114258,-0.18103,0.112183,0.0292969,-0.00585938,-0.0878906,-0.15625,0.110352,-0.240479,0.345703,0.0197754,-0.101807,0.329102,0.0996094,-0.105835,-0.0268555,0.236816,-0.0664062,-0.413086,-0.222656,-0.422852,-0.0649414,0.00463867,0.0732422,-0.0307007,-0.0552673,0.255859,-0.103516,0.233154,-0.119873,0.290649,0.0556641,-0.237793,-0.0322266,0.365234,0.450195,0.0736694,0.506226,-0.0263672,-0.203857,0.265625,0.266602,0.187042,0.227966,-0.128845,0.533447,0.09375,0.309082,-0.103027,-0.265137,0.0527344,-0.046875,-0.0282593,0.549072,0.0532227,0.0773926,0.332275,-0.197754,-0.231873,-0.156982,-0.238037,-0.265625,-0.274414,-0.0107422,-0.0544052,-0.123047,0.248047,0.120117,-0.313477,0.277344,0.143555,0.20166,-0.188232,0.0146484,0.201202,0.10083,-0.000488281,-0.0411987
pencil:pen,-0.037384,-0.00415039,0.203613,0.141357,-0.186035,0.135864,0.33252,-0.206543,-0.060791,-0.12207,0.00418091,0.354492,0.162598,0.0111084,0.0415039,0.106934,-0.0132294,-0.090332,-0.11145,0.134277,-0.209106,-0.0270996,0.0219727,0.221924,-0.18457,0.076416,-0.000732422,-0.197754,0.0126953,0.00976562,-0.0957031,0.0595703,0.0585938,-0.326904,0.123199,-0.0322266,0.193359,0.0273438,0.0800781,0.142578,-0.0396729,0.107422,0.266602,-0.0349426,-0.125,0.154297,-0.212646,-0.0737305,0.081543,0.0338135,-0.0859375,0.112549,-0.171875,0.00195312,0.0126953,-0.0458984,0.0977783,0.0429688,-0.344727,0.151855,-0.0449829,0.0229492,0.192749,0.130615,-0.161987,0.188301,0.0527344,-0.0878906,0.260986,-0.00878906,0.0683594,-0.0668335,0.0234375,0.0742188,-0.00390625,0.384766,-0.0341492,-0.0297852,-0.104004,-0.0196533,0.0629883,-0.206146,-0.466797,0.0595703,-0.144531,-0.104004,0.274902,0.149414,0.295898,-0.0336914,-0.0161133,-0.0793457,0.0557861,0.0932617,-0.0908203,-0.00292969,0.0839844,0.103271,-0.155762,0.268555,-0.0307617,0.0507812,-0.00292969,0.147461,-0.194885,0.0864258,0.186523,0.349121,-0.0478516,-0.116638,-0.112793,-0.445801,-0.100281,0.0812988,0.0334473,0.0449219,0.251953,0.154785,0.0616455,0.0166016,-0.200684,0.23645,0.145142,0.161133,-0.240234,0.415039,-0.0288086,-0.0733032,-0.0928345,0.238281,0.0556641,-0.292969,0.0292969,0.0380859,0.0595703,0.0429688,-0.161743,0.195312,0.00488281,0.134033,0.0722656,0.0544434,-0.346191,0.25708,-0.0209961,0.125,0.118134,-0.0975647,-0.23291,-0.0673828,0.0546875,0.0927734,-0.0510864,-0.0117188,0.00598145,0.0274048,-0.0771484,0.209229,-0.316406,0.429688,-0.0872803,0.0991211,-0.0688477,-0.000976562,0.0488281,0.22998,0.0712891,-0.117188,0.166016,-0.116211,-0.0563965,-0.0561523,-0.0351562,0.0783691,-0.0947266,0.0537109,-0.0683594,-0.0947266,0.050293,-0.0505371,-0.046875,-0.10791,-0.110474,0.234131,0.0577393,0.0341187,0.0883789,-0.09552,0.0390625,0.0869141,-0.0284424,-0.0431061,0.0651855,0.0322266,0.125244,-0.145508,0.170288,-0.177246,0.294434,0.100586,0.0273438,0.125427,-0.0400391,-0.110596,-0.166016,0.244141,-0.249512,-0.236816,-0.34082,0.0419922,-0.020752,0.147949,0.143311,-0.0205078,-0.03125,-0.0273438,-0.140625,0.16864,0.125977,-0.13208,0.110291,-0.0615234,-0.0625,-0.0292969,-0.365723,-0.107422,-0.454102,-0.112305,-0.0478516,-0.0429688,-0.16394,0.0872803,-0.149902,0.0515137,-0.156982,0.0739746,-0.0380859,-0.455566,0.333008,0.00585938,0.331543,-0.0292969,-0.189697,0.0195312,-0.0185547,-0.287109,-0.175049,-0.0634766,-0.115967,-0.123047,-0.0957031,-0.36792,0.121338,-0.0566406,-0.0117188,-0.166809,-0.213867,-0.00203323,0.212402,0.0957031,0.394531,0.128418,-0.195312,0.181641,0.102295,0.250488,0.271973,0.216309,-0.0695801,-0.119141,-0.189697,0.388672,-0.0361328,0.17334,-0.15403,0.134399,0.134766,-0.134766,-0.0234375,0.0810547,-0.0883789,-0.0107422,-0.0380859,0.0634766,-0.0644531,-0.295898,-0.206055,-0.0253906,0.0244141,0.335938,-0.0571289,0.0158691,-0.0146484,-0.000366211,-0.0876465,-0.0683594,-0.215332,0.0927734,0.109375,-0.0668945
picture:drawing,-0.0219727,0.144043,-0.208496,-0.101562,-0.0997314,0.129639,0.308594,0.0915527,-0.0249023,-0.128662,-0.138092,-0.164062,-0.0508118,0.193359,0.0429688,0.245605,-0.171143,0.195679,-0.0541992,-0.663574,0.171387,0.0546875,0.0986328,-0.074707,-0.0568848,0.206543,-0.193848,0.20752,0.176758,0.368164,-0.111328,0.238281,0.0117188,0.0592651,-0.0146484,0.107666,-0.107178,-0.0859375,-0.074707,0.0546875,-0.365234,0.0200195,-0.189209,0.0429688,0.369141,0.270508,0.0534668,0.0110321,-0.0450745,-0.0618286,0.144043,-0.258789,0.164307,-0.182068,0.0789795,-0.231934,0.228333,0.195312,-0.124878,-0.0558472,-0.40332,0.125977,-0.257812,0.262207,-0.111084,0.288086,0.247559,0.12207,0.450195,-0.0786133,-0.0170898,0.287109,0.0332031,0.107666,-0.137451,0.272949,0.157227,-0.0205078,0.159668,-0.132812,0.0395508,-0.125488,-0.00244141,-0.46582,-0.0541992,0.059082,0.157593,-0.111328,-0.245132,-0.285156,0.00976562,-0.181152,-0.0349121,-0.0617676,-0.209961,0.10083,-0.0708008,0.0876465,0.39502,-0.278198,0.0537109,0.257812,0.0531616,-0.18457,0.320801,-0.0258789,-0.098999,0.00415039,-0.146851,0.28418,0.128723,-0.0176315,0.0522461,0.136963,-0.179688,-0.0460815,0.205566,-0.211914,-0.0751953,0.294434,-0.0390625,-0.17334,-0.12085,-0.27002,-0.130859,0.0982666,-0.0888672,0.165039,0.181519,0.0374451,-0.40332,0.26709,0.399658,0.00939941,0.302734,0.151855,-0.0107422,-0.112671,-0.067749,0.0849609,0.395508,-0.12915,0.203613,-0.0288086,0.16687,-0.15625,-0.0437012,0.0449219,-0.203369,0.107788,-0.101562,0.358398,-0.12207,0.229736,-0.0991211,0.133789,-0.145508,-0.0966797,-0.0249023,-0.0371094,-0.242676,0.205078,0.0881348,0.188721,-0.0435181,-0.106689,-0.169922,0.0546875,-0.351562,0.256348,0.435547,0.0443115,0.0136719,-0.36377,-0.0712891,0.295654,0.0600586,-0.11084,0.121094,0.0727539,-0.224121,0.012085,-0.015625,-0.380859,-0.0429688,0.0932617,0.102783,0.230469,-0.125,0.234375,0.144531,-0.157959,-0.390137,0.121338,0.141602,0.153442,0.0274658,0.0693359,0.194641,0.0806885,0.0644531,0.143799,-0.376831,0.146484,-0.167969,0.189453,-0.101944,0.0720215,-0.0117188,-0.217285,-0.0297852,0.239288,-0.122681,0.156738,-0.178467,0.163086,-0.0803223,-0.0996094,-0.220703,-0.218628,-0.26062,-0.165771,-0.20105,-0.0405884,-0.203125,-0.412109,0.282227,-0.00585938,-0.431885,0.251709,-0.175903,-0.0244141,0.0927734,-0.294434,-0.0897217,0.175781,-0.00830078,-0.132324,0.237305,0.0454102,-0.277832,0.0244141,0.112915,0.250977,-0.0775452,-0.0932617,-0.0520477,0.0504456,-0.162872,-0.0697937,-0.0595703,-0.217529,-0.191406,0.20459,-0.217529,-0.31424,-0.0993652,-0.106522,0.0554199,-0.282227,-0.248047,0.0246582,-0.567383,-0.331299,0.334961,0.231934,-0.0975952,-0.0562744,-0.10498,-0.0214844,0.0698242,-0.0537109,0.427734,-0.127563,0.108398,-0.177734,0.0390625,-0.0107422,0.160156,-0.248047,-0.0195312,-0.168213,-0.09375,-0.0950928,-0.20105,0.0905762,-0.17041,-0.147949,0.0380859,-0.0193481,-0.09375,0.0265198,0.0316162,-0.300781,-0.119141,0.164062,-0.122131,-0.0380859,0.00582886,-0.0400391
pillow:cushion,-0.0299988,-0.0803299,0.0192566,0.392578,-0.113037,0.238037,0.151855,0.245483,0.331055,-0.0679932,-0.691406,-0.24585,0.0559082,-0.411377,0.0722656,-0.0361328,-0.336914,-0.107422,-0.101929,-0.000976562,-0.225098,-0.163086,0.196289,0.119499,-0.418457,-0.227783,0.266846,0.103516,0.0195312,-0.192383,0.12207,-0.186523,0.0349121,0.0889282,-0.104492,0.502441,-0.022644,0.172607,-0.158447,-0.171387,-0.141602,0.113533,-0.0849609,0.00878906,-0.10498,-0.0302734,-0.0253906,0.0717773,-0.0429688,-0.100647,-0.0825195,0.061554,-0.240601,0.0595703,0.434326,-0.126953,0.200043,0.0619507,-0.078125,0.491211,-0.034668,0.22168,0.167969,0.574219,0.0454102,0.196045,-0.147461,-0.337891,0.327881,0.0654297,0.294922,0.325684,0.139648,0.34375,0.208008,0.0598145,0.367188,-0.132568,0.109375,-0.303711,0.101562,0.139648,0.329346,-0.384766,-0.0820312,-0.299805,0.212891,-0.0947266,-0.12207,0.200195,0.190613,-0.235352,-0.135742,-0.29071,-0.430664,0.281738,0.572266,-0.263184,-0.0146484,0.0429688,-0.0952148,-0.243408,0.249512,-0.190979,0.0473633,0.378418,0.312744,-0.0778809,0.182617,0.065918,-0.103516,-0.000976562,0.175537,-0.181152,0.203125,0.0394897,-0.215332,-0.361328,0.180176,-0.238281,-0.0645752,0.00195312,0.0178223,-0.0153809,0.196045,-0.0622559,0.141602,-0.00878906,0.0283203,-0.0488281,-0.330078,-0.0581665,-0.25,0.15918,-0.034668,0.511963,-0.209961,0.0310059,0.0205078,-0.00292969,0.120743,0.256836,0.175171,0.0429688,-0.196777,0.0966797,0.116211,-0.147217,0.222656,-0.0151367,0.70752,0.0974121,0.207031,-0.0126343,-0.015625,-0.321777,0.130859,-0.0478516,-0.120667,0.608887,-0.0439453,-0.246338,0.0478516,0.213867,-0.24707,-0.555908,0.16748,-0.0893555,0.11499,-0.0463867,0.310547,-0.124512,-0.34082,0.17041,-0.371094,-0.0795898,-0.143066,-0.0629883,-0.019043,0.115234,-0.0195312,-0.0712891,-0.381836,0.0407715,0.182129,0.509277,0.160156,0.118408,-0.151367,0.242432,0.101562,0.108398,-0.242188,-0.173584,0.539062,0.364258,-0.310547,0.0820312,-0.0830078,-0.0390625,0.0727539,-0.216064,-0.0761719,0.0231934,-0.233887,0.21582,0.185547,0.428223,-0.00292969,0.297852,-0.374023,-0.273926,-0.445312,-0.413086,0.125977,0.126953,0.0649414,0.179443,-0.22657,-0.112793,-0.503906,-0.0800781,0.201172,0.371582,-0.19043,0.00292969,0.0488281,0.195801,-0.381836,-0.205078,0.0205078,-0.439453,-0.441406,0.155518,0.231445,-0.117188,-0.19873,0.0634766,0.0136719,-0.0625,0.212891,-0.00341797,-0.0944824,0.0273438,0.163696,0.460938,0.127014,0.196289,-0.438477,-0.188477,-0.104004,0.152954,0.389648,-0.178955,0.00878906,0.27832,-0.335449,0.0507812,0.463867,-0.226074,0.259766,0.0507812,-0.287109,-0.344421,-0.142578,-0.121094,-0.227295,0.10791,-0.308594,0.0273438,-0.213867,0.174805,0.0239258,0.357422,0.272949,-0.111084,0.0668945,0.375977,-0.0533447,-0.28125,-0.0322266,0.314453,0.438232,0.2229,0.0543213,0.540039,-0.172363,-0.225708,-0.188721,0.460938,-0.0458984,0.0493164,-0.218262,0.357748,0.0880127,-0.379883,0.282227,0.201172,0.0078125,0.549805
pretty:beautiful,0.141357,-0.101807,-0.190613,0.0717773,-0.178467,0.0241699,-0.309082,0.078125,0.253418,-0.0898438,0.220703,0.0986328,-0.0585938,-0.200928,-0.348633,-0.0502319,0.11908,0.148438,0.03125,-0.253906,-0.00292969,-0.161621,0.120605,-0.0458984,0.0908203,-0.166504,-0.295898,0.0375977,0.00268555,0.453125,-0.000976562,-0.210327,0.078125,-0.125488,0.144043,0.367676,0.0458984,0.210449,0.088922,0.105469,0.210449,-0.0292969,-0.0117188,0.0771484,-0.211792,0.222656,-0.0507812,-0.150146,0.200195,0.0842285,0.134277,-0.127441,-0.304565,-0.260254,-0.00292969,0.098877,0.138184,0.269043,0.255371,-0.00726318,-0.144043,0.160156,0.0458984,0.114258,-0.169922,-0.0661621,0.083374,0.219482,-0.0805664,-0.253296,-0.128906,0.101807,0.236847,-0.0272217,-0.0400391,-0.218536,0.151855,-0.0205078,-0.148315,-0.128906,0.391113,0.0344238,-0.0739746,0.107178,0.0800781,-0.144531,-0.0283203,0.243164,0.0517578,-0.391113,0.0922852,0.00927734,0.171143,0.179199,0.0585938,-0.112305,0.00299072,0.230957,-0.21582,0.102051,0.140625,-0.222168,-0.0710449,0.375977,-0.101318,-0.148438,-0.295898,-0.0488281,-0.078125,0.294922,0.203857,-0.228638,-0.00222778,-0.0292969,-0.0625,0.235352,-0.118408,0.237854,0.0576172,0.013916,-0.335205,0.0241699,-0.104492,0.13269,0.184082,-0.0327148,-0.121094,-0.224609,-0.0983276,-0.291504,0.11377,-0.325928,0.0563965,-0.074707,-0.476074,0.0247192,0.381348,-0.0162964,-0.0450439,-0.0771484,0.0397949,0.0546875,0.0380859,-0.0244141,-0.159912,-0.0136719,-0.10376,-0.475586,0.21756,0.281006,-0.00585938,0.0556641,-0.342529,0.0273438,0.15918,0.0107422,-0.220703,-0.034668,-0.0341797,0.322266,0.17112,0.125,-0.0742188,-0.0703125,0.0834961,-0.212891,-0.220947,0.0615234,0.365191,0.114014,-0.0283203,-0.136719,0.168091,0.0395203,-0.112061,-0.225098,0.00488281,-0.348633,0.289551,0.333008,0.0976562,0.0976562,0.293823,0.405273,0.171875,-0.0837402,-0.141113,0.0254669,0.108673,0.0483398,0.150635,-0.15332,-0.31369,-0.167358,-0.131714,-0.119019,0.0256348,-0.0563049,0.00756836,-0.00341797,0.0234375,0.112793,0.177734,0.36084,0.213135,0.0487671,-0.251953,-0.0445557,-0.0219727,0.197266,0.499023,0.0761719,0.325195,0.0263672,-0.0760498,0.00537109,0.0239258,-0.129395,-0.0748291,0.0397949,-0.284912,-0.152344,0.0976562,-0.117676,0.205566,0.125244,-0.00335693,-0.146484,0.271484,-0.115234,0.0454102,-0.111206,0.141113,-0.271484,-0.282715,-0.0939941,0.00927734,-0.138184,-0.00195312,-0.0302734,0.201172,0.530273,0.137695,-0.097168,-0.115051,-0.115723,-0.0789185,0.24707,-0.0244141,0.0284424,-0.236328,0.0136719,0.0273438,-0.166016,0.0175781,0.418213,-0.0756836,0.0371094,0.189331,-0.121521,0.0717773,0.176758,-0.0966797,0.0386353,-0.399414,0.155273,0.231445,-0.258301,-0.0263672,-0.11377,-0.148438,0.00927734,0.473633,-0.14209,-0.158936,-0.0537109,-0.0267334,-0.0979004,0.248047,0.150635,0.175781,-0.0107422,0.126503,0.15918,0.0366211,-0.078125,0.0224609,-0.0410156,0.0107422,0.0917969,0.106018,0.0219727,0.0427246,0.135666,-0.0681152,-0.219238,0.0634766,0.254395,0.178223,-0.0626221
raise:elevate,0.0742188,-0.225098,-0.0117188,0.162598,-0.0928955,-0.0809326,0,0.0922852,0.114502,0.144531,0.231445,0.0820618,-0.423828,-0.15625,-0.165283,0.280273,-0.0960693,0.129883,-0.313477,-0.0478516,0.0136719,-0.0377808,0.261963,0.164551,-0.17157,0.0498047,-0.195068,-0.236328,-0.152344,0.0223389,0.18335,-0.0373535,-0.207031,-0.253418,-0.143677,-0.0556641,-0.0141602,-0.188263,-0.0800781,0.195801,0.0273438,-0.0682373,-0.0292358,-0.10791,-0.239258,0.294922,-0.0205078,-0.0761719,-0.255859,0.0126953,0.445801,-0.172363,0.186157,-0.088623,-0.29541,-0.178589,-0.301025,0.135254,-0.142334,-0.00683594,0.0214844,-0.0600586,0.147461,-0.180786,-0.0292358,-0.283203,0.0742188,-0.189575,0.119568,0.101562,0.150879,-0.285156,-0.12085,-0.15625,0.138916,0.393555,-0.117188,0.0166016,-0.0869141,0.140137,-0.0136719,-0.130859,-0.246094,0.301758,-0.084259,0.0849609,-0.108398,0.12085,0.15625,0.128906,0.224609,0.134521,0.103149,-0.019043,-0.162109,0.0488281,0.15332,-0.0332031,0.291992,0.206299,-0.113281,-0.0693359,-0.152588,0.182617,0.310547,-0.00976562,0.18335,-0.108398,0.02771,-0.0522461,0.0993652,-0.436523,0.0898438,0.0820312,-0.0549316,0.183594,-0.0307617,0.0675335,-0.210571,0.221191,0.248291,-0.0852051,-0.0234375,-0.170654,0.0273438,0.0398588,-0.0595703,-0.0532227,-0.00146484,-0.205566,-0.0976562,-0.0910645,0.236816,-0.20752,-0.125977,-0.0489502,0.00488281,-0.196289,0.125244,0.0871582,0.0865479,0.00878906,0.147461,0.0201416,0.074707,0.0246887,-0.129395,-0.136719,-0.0998535,-0.236084,-0.448242,-0.146973,0.0544434,-0.178711,0.248535,-0.111328,-0.229736,0.126831,0.301025,0.181396,-0.00585938,0.0605469,0.333496,0.107056,-0.0495605,-0.104492,0.0722656,-0.0478516,0.282715,-0.177734,0.0136719,-0.205078,-0.090332,-0.171265,-0.0863037,-0.0848999,0.0830078,0.268799,-0.0778809,0.122559,0,0.0296631,-0.000244141,0.112305,0.259766,-0.183105,0.0872192,0.252441,0.0952148,-0.101074,-0.273926,0.195068,-0.363281,0.015625,-0.266968,-0.0195312,0.0908203,-0.149902,0.0733032,0.208496,-0.0957031,-0.196777,0.041687,-0.139877,0.055481,0.151367,-0.214844,0.274261,0.000854492,0.133301,-0.0234375,-0.126953,0.162354,-0.114258,0.227539,-0.00732422,0.195801,0.116211,0.00280762,-0.0410156,-0.0908203,0.0654297,0.272949,-0.126953,-0.0449219,0.105469,-0.133789,-0.231934,0.140869,-0.0527344,0.0776367,0.153809,0.0917969,0.0253906,0.0239258,0.0664062,0.0687256,-0.112793,-0.00292969,-0.125488,0.285217,-0.111572,-0.366943,0.181152,0.0429688,0.0977783,0.193115,-0.127686,0.0566406,0.0859375,0.0045166,-0.0957031,-0.0732422,-0.00732422,-0.166992,0.0630798,0.427734,0.111328,-0.101013,0.115295,-0.102295,-0.0454102,-0.0620117,0.0736084,-0.373291,0.0302734,-0.316406,0.17041,0.160278,0.143555,0.195312,0.00195312,0.132812,0.145996,0.333496,-0.264648,0.164062,0.0595703,-0.0825195,-0.25,-0.0561523,0.229126,-0.0992432,0.0341797,0.198792,-0.166992,0.178711,0.0871582,0.311035,0.504883,-0.124023,-0.0898438,0.0712891,0.0332031,0.0371094,0.0605469,-0.191162,0.189331,-0.0415039,-0.225891
